<?xml version="1.0"?>
<MethodSetup Method="BDT::BDTG">
  <GeneralInfo>
    <Info name="TMVA Release" value="4.2.0 [262656]"/>
    <Info name="ROOT Release" value="6.02/13 [393741]"/>
    <Info name="Creator" value="peruzzi"/>
    <Info name="Date" value="Mon Apr 11 15:45:36 2016"/>
    <Info name="Host" value="Linux vocms0301.cern.ch 2.6.32-573.7.1.el6.x86_64 #1 SMP Wed Sep 23 10:12:03 CEST 2015 x86_64 x86_64 x86_64 GNU/Linux"/>
    <Info name="Dir" value="/data/peruzzi/training_lepMVA_76X"/>
    <Info name="Training events" value="1333378"/>
    <Info name="TrainingTime" value="1.09106463e+03"/>
    <Info name="AnalysisType" value="Classification"/>
  </GeneralInfo>
  <Options>
    <Option name="V" modified="Yes">False</Option>
    <Option name="VerbosityLevel" modified="No">Default</Option>
    <Option name="VarTransform" modified="No">None</Option>
    <Option name="H" modified="Yes">False</Option>
    <Option name="CreateMVAPdfs" modified="Yes">True</Option>
    <Option name="IgnoreNegWeightsInTraining" modified="No">False</Option>
    <Option name="NTrees" modified="Yes">500</Option>
    <Option name="MaxDepth" modified="Yes">2</Option>
    <Option name="MinNodeSize" modified="No">0.0075003.2</Option>
    <Option name="nCuts" modified="Yes">2000</Option>
    <Option name="BoostType" modified="Yes">Grad</Option>
    <Option name="AdaBoostR2Loss" modified="No">quadratic</Option>
    <Option name="UseBaggedBoost" modified="No">False</Option>
    <Option name="Shrinkage" modified="Yes">1.000000e-01</Option>
    <Option name="AdaBoostBeta" modified="No">5.000000e-01</Option>
    <Option name="UseRandomisedTrees" modified="No">False</Option>
    <Option name="UseNvars" modified="Yes">9</Option>
    <Option name="UsePoissonNvars" modified="No">True</Option>
    <Option name="BaggedSampleFraction" modified="No">6.000000e-01</Option>
    <Option name="UseYesNoLeaf" modified="No">True</Option>
    <Option name="NegWeightTreatment" modified="No">ignorenegweightsintraining</Option>
    <Option name="Css" modified="No">1.000000e+00</Option>
    <Option name="Cts_sb" modified="No">1.000000e+00</Option>
    <Option name="Ctb_ss" modified="No">1.000000e+00</Option>
    <Option name="Cbb" modified="No">1.000000e+00</Option>
    <Option name="NodePurityLimit" modified="No">5.000000e-01</Option>
    <Option name="SeparationType" modified="No">giniindex</Option>
    <Option name="DoBoostMonitor" modified="No">False</Option>
    <Option name="UseFisherCuts" modified="No">False</Option>
    <Option name="MinLinCorrForFisher" modified="No">8.000000e-01</Option>
    <Option name="UseExclusiveVars" modified="No">False</Option>
    <Option name="DoPreselection" modified="No">False</Option>
    <Option name="SigToBkgFraction" modified="No">1.000000e+00</Option>
    <Option name="PruneMethod" modified="No">nopruning</Option>
    <Option name="PruneStrength" modified="No">0.000000e+00</Option>
    <Option name="PruningValFraction" modified="No">5.000000e-01</Option>
    <Option name="nEventsMin" modified="Yes">100</Option>
    <Option name="UseBaggedGrad" modified="Yes">False</Option>
    <Option name="GradBaggingFraction" modified="No">6.000000e-01</Option>
    <Option name="UseNTrainEvents" modified="No">0</Option>
    <Option name="NNodesMax" modified="Yes">9</Option>
  </Options>
  <Variables NVar="11">
    <Variable VarIndex="0" Expression="LepGood_pt" Label="LepGood_pt" Title="LepGood_pt" Unit="" Internal="LepGood_pt" Type="D" Min="7.00001478e+00" Max="1.40995410e+03"/>
    <Variable VarIndex="1" Expression="LepGood_eta" Label="LepGood_eta" Title="LepGood_eta" Unit="" Internal="LepGood_eta" Type="D" Min="-2.49999285e+00" Max="2.49998069e+00"/>
    <Variable VarIndex="2" Expression="LepGood_miniRelIsoCharged" Label="LepGood_miniRelIsoCharged" Title="LepGood_miniRelIsoCharged" Unit="" Internal="LepGood_miniRelIsoCharged" Type="D" Min="0.00000000e+00" Max="3.99993390e-01"/>
    <Variable VarIndex="3" Expression="LepGood_miniRelIsoNeutral" Label="LepGood_miniRelIsoNeutral" Title="LepGood_miniRelIsoNeutral" Unit="" Internal="LepGood_miniRelIsoNeutral" Type="D" Min="0.00000000e+00" Max="3.99997443e-01"/>
    <Variable VarIndex="4" Expression="LepGood_jetPtRelv2" Label="LepGood_jetPtRelv2" Title="LepGood_jetPtRelv2" Unit="" Internal="LepGood_jetPtRelv2" Type="D" Min="0.00000000e+00" Max="9.87388672e+02"/>
    <Variable VarIndex="5" Expression="min(LepGood_jetPtRatiov2,1.5)" Label="LepGood_jetPtRatio" Title="LepGood_jetPtRatio" Unit="" Internal="LepGood_jetPtRatio" Type="D" Min="1.33986343e-02" Max="1.50000000e+00"/>
    <Variable VarIndex="6" Expression="max(LepGood_jetBTagCSV,0)" Label="LepGood_jetBTagCSV" Title="LepGood_jetBTagCSV" Unit="" Internal="LepGood_jetBTagCSV" Type="D" Min="0.00000000e+00" Max="9.99629259e-01"/>
    <Variable VarIndex="7" Expression="LepGood_sip3d" Label="LepGood_sip3d" Title="LepGood_sip3d" Unit="" Internal="LepGood_sip3d" Type="D" Min="5.83915797e-04" Max="7.99996996e+00"/>
    <Variable VarIndex="8" Expression="log(abs(LepGood_dxy))" Label="LepGood_dxy" Title="LepGood_dxy" Unit="" Internal="LepGood_dxy" Type="D" Min="-2.07257442e+01" Max="-2.99574161e+00"/>
    <Variable VarIndex="9" Expression="log(abs(LepGood_dz))" Label="LepGood_dz" Title="LepGood_dz" Unit="" Internal="LepGood_dz" Type="D" Min="-1.97254810e+01" Max="-2.30260396e+00"/>
    <Variable VarIndex="10" Expression="LepGood_mvaIdSpring15" Label="LepGood_mvaIdSpring15" Title="LepGood_mvaIdSpring15" Unit="" Internal="LepGood_mvaIdSpring15" Type="D" Min="-9.19999599e-01" Max="9.99912500e-01"/>
  </Variables>
  <Spectators NSpec="0"/>
  <Classes NClass="2">
    <Class Name="Signal" Index="0"/>
    <Class Name="Background" Index="1"/>
  </Classes>
  <Transformations NTransformations="0"/>
  <MVAPdfs>
    <PDF Name="BDTG_PDFSig" MinNSmooth="0" MaxNSmooth="0" InterpolMethod="2" KDE_type="1" KDE_iter="1" KDE_border="1" KDE_finefactor="1.0000000000000000e+00">
      <Histogram Name="BDT_tr_S_original" NBins="26667" XMin="-9.9986916780471802e-01" XMax="9.9693781137466431e-01" HasEquidistantBins="1">
        0.00000000e+00 0.00000000e+00 0.00000000e+00 0.00000000e+00 0.00000000e+00 0.00000000e+00 0.00000000e+00 0.00000000e+00 0.00000000e+00 0.00000000e+00 0.00000000e+00 0.00000000e+00 0.00000000e+00 0.00000000e+00 0.00000000e+00 0.00000000e+00 4.36015995e-02 0.00000000e+00 0.00000000e+00 4.36015995e-02 0.00000000e+00 0.00000000e+00 0.00000000e+00 0.00000000e+00 8.72031990e-02 0.00000000e+00 0.00000000e+00 8.72031990e-02 0.00000000e+00 0.00000000e+00 0.00000000e+00 0.00000000e+00 4.36015995e-02 4.36015995e-02 0.00000000e+00 4.36015995e-02 0.00000000e+00 0.00000000e+00 4.36015995e-02 0.00000000e+00 4.36015995e-02 0.00000000e+00 0.00000000e+00 0.00000000e+00 4.36015995e-02 4.36015995e-02 0.00000000e+00 0.00000000e+00 0.00000000e+00 4.36015995e-02 0.00000000e+00 0.00000000e+00 4.36015995e-02 4.36015995e-02 0.00000000e+00 8.72031990e-02 4.36015995e-02 0.00000000e+00 0.00000000e+00 0.00000000e+00 8.72031990e-02 1.30804798e-01 4.36015995e-02 4.36015995e-02 4.36015995e-02 0.00000000e+00 0.00000000e+00 0.00000000e+00 4.36015995e-02 4.36015995e-02 1.30804798e-01 0.00000000e+00 1.30804798e-01 4.36015995e-02 1.30804798e-01 0.00000000e+00 4.36015995e-02 4.36015995e-02 4.36015995e-02 4.36015995e-02 8.72031990e-02 1.30804798e-01 8.72031990e-02 4.36015995e-02 4.36015995e-02 8.72031990e-02 8.72031990e-02 4.36015995e-02 0.00000000e+00 4.36015995e-02 0.00000000e+00 0.00000000e+00 4.36015995e-02 0.00000000e+00 0.00000000e+00 0.00000000e+00 0.00000000e+00 4.36015995e-02 1.30804798e-01 0.00000000e+00 8.72031990e-02 0.00000000e+00 0.00000000e+00 8.72031990e-02 0.00000000e+00 4.36015995e-02 1.30804798e-01 4.36015995e-02 4.36015995e-02 4.36015995e-02 0.00000000e+00 4.36015995e-02 4.36015995e-02 8.72031990e-02 8.72031990e-02 4.36015995e-02 4.36015995e-02 8.72031990e-02 8.72031990e-02 8.72031990e-02 0.00000000e+00 4.36015995e-02 0.00000000e+00 0.00000000e+00 4.36015995e-02 1.74406398e-01 4.36015995e-02 0.00000000e+00 0.00000000e+00 0.00000000e+00 8.72031990e-02 4.36015995e-02 4.36015995e-02 8.72031990e-02 1.74406398e-01 1.74406398e-01 2.18007997e-01 0.00000000e+00 0.00000000e+00 0.00000000e+00 4.36015995e-02 4.36015995e-02 0.00000000e+00 1.30804798e-01 4.36015995e-02 8.72031990e-02 8.72031990e-02 4.36015995e-02 0.00000000e+00 4.36015995e-02 1.30804798e-01 8.72031990e-02 8.72031990e-02 1.30804798e-01 4.36015995e-02 0.00000000e+00 1.30804798e-01 0.00000000e+00 8.72031990e-02 4.36015995e-02 4.36015995e-02 4.36015995e-02 0.00000000e+00 4.36015995e-02 0.00000000e+00 4.36015995e-02 2.18007997e-01 4.36015995e-02 0.00000000e+00 4.36015995e-02 4.36015995e-02 0.00000000e+00 8.72031990e-02 8.72031990e-02 8.72031990e-02 1.30804798e-01 4.36015995e-02 4.36015995e-02 1.74406398e-01 4.36015995e-02 4.36015995e-02 8.72031990e-02 1.30804798e-01 0.00000000e+00 8.72031990e-02 4.36015995e-02 1.30804798e-01 4.36015995e-02 1.74406398e-01 4.36015995e-02 4.36015995e-02 4.36015995e-02 8.72031990e-02 0.00000000e+00 1.30804798e-01 4.36015995e-02 4.36015995e-02 8.72031990e-02 0.00000000e+00 8.72031990e-02 0.00000000e+00 1.30804798e-01 0.00000000e+00 4.36015995e-02 4.36015995e-02 0.00000000e+00 4.36015995e-02 0.00000000e+00 8.72031990e-02 4.36015995e-02 8.72031990e-02 2.18007997e-01 4.36015995e-02 8.72031990e-02 4.36015995e-02 1.30804798e-01 8.72031990e-02 1.74406398e-01 0.00000000e+00 4.36015995e-02 4.36015995e-02 0.00000000e+00 4.36015995e-02 4.36015995e-02 4.36015995e-02 0.00000000e+00 8.72031990e-02 4.36015995e-02 8.72031990e-02 1.30804798e-01 0.00000000e+00 4.36015995e-02 4.36015995e-02 0.00000000e+00 8.72031990e-02 0.00000000e+00 0.00000000e+00 4.36015995e-02 8.72031990e-02 8.72031990e-02 0.00000000e+00 0.00000000e+00 8.72031990e-02 4.36015995e-02 0.00000000e+00 4.36015995e-02 8.72031990e-02 8.72031990e-02 8.72031990e-02 8.72031990e-02 0.00000000e+00 0.00000000e+00 1.30804798e-01 1.30804798e-01 0.00000000e+00 8.72031990e-02 1.30804798e-01 4.36015995e-02 0.00000000e+00 1.30804798e-01 8.72031990e-02 0.00000000e+00 4.36015995e-02 1.30804798e-01 4.36015995e-02 1.74406398e-01 1.74406398e-01 4.36015995e-02 4.36015995e-02 4.36015995e-02 8.72031990e-02 1.30804798e-01 4.36015995e-02 0.00000000e+00 1.30804798e-01 2.18007997e-01 1.30804798e-01 1.30804798e-01 1.30804798e-01 4.36015995e-02 4.36015995e-02 0.00000000e+00 4.36015995e-02 4.36015995e-02 1.74406398e-01 8.72031990e-02 8.72031990e-02 0.00000000e+00 8.72031990e-02 0.00000000e+00 0.00000000e+00 4.36015995e-02 1.30804798e-01 8.72031990e-02 0.00000000e+00 1.30804798e-01 0.00000000e+00 0.00000000e+00 1.30804798e-01 4.36015995e-02 1.30804798e-01 8.72031990e-02 8.72031990e-02 1.30804798e-01 0.00000000e+00 4.36015995e-02 4.36015995e-02 4.36015995e-02 4.36015995e-02 0.00000000e+00 4.36015995e-02 4.36015995e-02 0.00000000e+00 0.00000000e+00 4.36015995e-02 8.72031990e-02 8.72031990e-02 4.36015995e-02 1.30804798e-01 1.30804798e-01 8.72031990e-02 1.74406398e-01 1.30804798e-01 1.30804798e-01 4.36015995e-02 8.72031990e-02 8.72031990e-02 4.36015995e-02 0.00000000e+00 8.72031990e-02 0.00000000e+00 0.00000000e+00 1.74406398e-01 4.36015995e-02 0.00000000e+00 1.30804798e-01 4.36015995e-02 8.72031990e-02 1.30804798e-01 4.36015995e-02 4.36015995e-02 1.30804798e-01 4.36015995e-02 8.72031990e-02 1.30804798e-01 0.00000000e+00 8.72031990e-02 1.30804798e-01 8.72031990e-02 8.72031990e-02 4.36015995e-02 4.36015995e-02 0.00000000e+00 4.36015995e-02 1.30804798e-01 1.30804798e-01 2.18007997e-01 4.36015995e-02 8.72031990e-02 1.30804798e-01 8.72031990e-02 8.72031990e-02 0.00000000e+00 0.00000000e+00 8.72031990e-02 0.00000000e+00 8.72031990e-02 8.72031990e-02 1.30804798e-01 8.72031990e-02 1.74406398e-01 2.18007997e-01 8.72031990e-02 4.36015995e-02 8.72031990e-02 0.00000000e+00 0.00000000e+00 2.18007997e-01 0.00000000e+00 0.00000000e+00 1.74406398e-01 4.36015995e-02 1.30804798e-01 0.00000000e+00 0.00000000e+00 4.36015995e-02 0.00000000e+00 8.72031990e-02 8.72031990e-02 8.72031990e-02 1.30804798e-01 1.74406398e-01 1.30804798e-01 0.00000000e+00 4.36015995e-02 4.36015995e-02 1.74406398e-01 4.36015995e-02 0.00000000e+00 4.36015995e-02 8.72031990e-02 4.36015995e-02 8.72031990e-02 4.36015995e-02 1.30804798e-01 8.72031990e-02 1.30804798e-01 4.36015995e-02 0.00000000e+00 1.74406398e-01 1.30804798e-01 1.30804798e-01 0.00000000e+00 1.30804798e-01 8.72031990e-02 8.72031990e-02 0.00000000e+00 8.72031990e-02 8.72031990e-02 0.00000000e+00 1.30804798e-01 8.72031990e-02 4.36015995e-02 8.72031990e-02 0.00000000e+00 4.36015995e-02 1.74406398e-01 4.36015995e-02 4.36015995e-02 0.00000000e+00 4.36015995e-02 1.30804798e-01 0.00000000e+00 8.72031990e-02 4.36015995e-02 4.36015995e-02 1.74406398e-01 0.00000000e+00 2.18007997e-01 4.36015995e-02 1.30804798e-01 4.36015995e-02 4.36015995e-02 0.00000000e+00 0.00000000e+00 2.18007997e-01 1.30804798e-01 8.72031990e-02 4.36015995e-02 2.18007997e-01 8.72031990e-02 8.72031990e-02 8.72031990e-02 0.00000000e+00 0.00000000e+00 1.30804798e-01 4.36015995e-02 4.36015995e-02 0.00000000e+00 1.30804798e-01 4.36015995e-02 1.74406398e-01 0.00000000e+00 1.30804798e-01 4.36015995e-02 4.36015995e-02 4.36015995e-02 1.30804798e-01 1.74406398e-01 1.30804798e-01 4.36015995e-02 0.00000000e+00 4.36015995e-02 8.72031990e-02 1.30804798e-01 8.72031990e-02 8.72031990e-02 0.00000000e+00 4.36015995e-02 8.72031990e-02 4.36015995e-02 8.72031990e-02 1.74406398e-01 1.30804798e-01 1.74406398e-01 4.36015995e-02 0.00000000e+00 8.72031990e-02 2.18007997e-01 1.30804798e-01 1.30804798e-01 1.74406398e-01 4.36015995e-02 4.36015995e-02 8.72031990e-02 8.72031990e-02 4.36015995e-02 1.30804798e-01 8.72031990e-02 0.00000000e+00 4.36015995e-02 2.61609597e-01 2.18007997e-01 8.72031990e-02 8.72031990e-02 8.72031990e-02 4.36015995e-02 1.30804798e-01 0.00000000e+00 8.72031990e-02 1.30804798e-01 0.00000000e+00 1.30804798e-01 4.36015995e-02 0.00000000e+00 2.18007997e-01 0.00000000e+00 0.00000000e+00 8.72031990e-02 4.36015995e-02 4.36015995e-02 4.36015995e-02 8.72031990e-02 8.72031990e-02 8.72031990e-02 4.36015995e-02 4.36015995e-02 0.00000000e+00 1.30804798e-01 4.36015995e-02 8.72031990e-02 4.36015995e-02 4.36015995e-02 4.36015995e-02 4.36015995e-02 0.00000000e+00 1.74406398e-01 4.36015995e-02 8.72031990e-02 8.72031990e-02 8.72031990e-02 0.00000000e+00 1.74406398e-01 4.36015995e-02 4.36015995e-02 8.72031990e-02 0.00000000e+00 4.36015995e-02 4.36015995e-02 4.36015995e-02 1.30804798e-01 1.30804798e-01 1.74406398e-01 2.18007997e-01 1.30804798e-01 4.36015995e-02 8.72031990e-02 8.72031990e-02 1.30804798e-01 0.00000000e+00 4.36015995e-02 0.00000000e+00 1.30804798e-01 8.72031990e-02 4.36015995e-02 4.36015995e-02 4.36015995e-02 0.00000000e+00 1.30804798e-01 4.36015995e-02 4.36015995e-02 1.30804798e-01 8.72031990e-02 8.72031990e-02 4.36015995e-02 1.30804798e-01 1.30804798e-01 0.00000000e+00 1.30804798e-01 8.72031990e-02 4.36015995e-02 8.72031990e-02 1.30804798e-01 1.30804798e-01 8.72031990e-02 8.72031990e-02 4.36015995e-02 2.18007997e-01 1.74406398e-01 4.36015995e-02 0.00000000e+00 0.00000000e+00 1.74406398e-01 4.36015995e-02 8.72031990e-02 8.72031990e-02 1.74406398e-01 4.36015995e-02 4.36015995e-02 4.36015995e-02 8.72031990e-02 1.74406398e-01 8.72031990e-02 1.30804798e-01 1.30804798e-01 8.72031990e-02 2.61609597e-01 8.72031990e-02 4.36015995e-02 1.30804798e-01 1.74406398e-01 4.36015995e-02 1.74406398e-01 2.18007997e-01 8.72031990e-02 4.36015995e-02 8.72031990e-02 1.30804798e-01 4.36015995e-02 0.00000000e+00 0.00000000e+00 4.36015995e-02 1.74406398e-01 1.74406398e-01 2.61609597e-01 1.30804798e-01 0.00000000e+00 2.61609597e-01 4.36015995e-02 8.72031990e-02 4.36015995e-02 1.30804798e-01 0.00000000e+00 1.30804798e-01 4.36015995e-02 1.74406398e-01 1.74406398e-01 2.61609597e-01 4.36015995e-02 4.36015995e-02 4.36015995e-02 4.36015995e-02 0.00000000e+00 0.00000000e+00 8.72031990e-02 0.00000000e+00 2.18007997e-01 4.36015995e-02 4.36015995e-02 8.72031990e-02 1.74406398e-01 1.30804798e-01 8.72031990e-02 0.00000000e+00 8.72031990e-02 1.30804798e-01 4.36015995e-02 8.72031990e-02 8.72031990e-02 4.36015995e-02 8.72031990e-02 1.74406398e-01 8.72031990e-02 1.30804798e-01 1.30804798e-01 1.30804798e-01 4.36015995e-02 2.18007997e-01 4.36015995e-02 4.36015995e-02 0.00000000e+00 4.36015995e-02 8.72031990e-02 4.36015995e-02 1.30804798e-01 4.36015995e-02 1.30804798e-01 8.72031990e-02 8.72031990e-02 1.30804798e-01 8.72031990e-02 2.18007997e-01 4.36015995e-02 0.00000000e+00 8.72031990e-02 1.30804798e-01 8.72031990e-02 4.36015995e-02 4.36015995e-02 1.30804798e-01 8.72031990e-02 0.00000000e+00 8.72031990e-02 4.36015995e-02 2.61609597e-01 0.00000000e+00 1.30804798e-01 1.74406398e-01 0.00000000e+00 8.72031990e-02 8.72031990e-02 4.36015995e-02 1.74406398e-01 8.72031990e-02 4.36015995e-02 8.72031990e-02 0.00000000e+00 2.18007997e-01 8.72031990e-02 0.00000000e+00 4.36015995e-02 1.30804798e-01 8.72031990e-02 8.72031990e-02 4.36015995e-02 0.00000000e+00 1.30804798e-01 0.00000000e+00 4.36015995e-02 1.74406398e-01 4.36015995e-02 0.00000000e+00 8.72031990e-02 1.74406398e-01 8.72031990e-02 8.72031990e-02 4.36015995e-02 0.00000000e+00 1.30804798e-01 8.72031990e-02 0.00000000e+00 4.36015995e-02 1.74406398e-01 8.72031990e-02 0.00000000e+00 8.72031990e-02 0.00000000e+00 4.36015995e-02 4.36015995e-02 4.36015995e-02 1.74406398e-01 1.30804798e-01 1.74406398e-01 8.72031990e-02 1.74406398e-01 8.72031990e-02 4.36015995e-02 8.72031990e-02 8.72031990e-02 8.72031990e-02 1.74406398e-01 1.30804798e-01 0.00000000e+00 1.30804798e-01 2.18007997e-01 4.36015995e-02 4.36015995e-02 1.30804798e-01 0.00000000e+00 1.30804798e-01 0.00000000e+00 1.30804798e-01 1.30804798e-01 8.72031990e-02 4.36015995e-02 4.36015995e-02 4.36015995e-02 1.74406398e-01 8.72031990e-02 4.36015995e-02 4.36015995e-02 1.74406398e-01 4.36015995e-02 0.00000000e+00 4.36015995e-02 0.00000000e+00 2.61609597e-01 4.36015995e-02 4.36015995e-02 4.36015995e-02 8.72031990e-02 8.72031990e-02 2.18007997e-01 2.18007997e-01 1.74406398e-01 1.30804798e-01 4.36015995e-02 1.74406398e-01 4.36015995e-02 8.72031990e-02 0.00000000e+00 8.72031990e-02 8.72031990e-02 4.36015995e-02 2.18007997e-01 8.72031990e-02 8.72031990e-02 0.00000000e+00 8.72031990e-02 1.30804798e-01 8.72031990e-02 0.00000000e+00 8.72031990e-02 4.36015995e-02 8.72031990e-02 8.72031990e-02 1.30804798e-01 1.74406398e-01 1.30804798e-01 8.72031990e-02 4.36015995e-02 8.72031990e-02 1.30804798e-01 8.72031990e-02 1.30804798e-01 8.72031990e-02 1.30804798e-01 1.30804798e-01 1.30804798e-01 2.18007997e-01 0.00000000e+00 4.36015995e-02 1.30804798e-01 1.74406398e-01 4.36015995e-02 2.18007997e-01 4.36015995e-02 4.36015995e-02 2.18007997e-01 4.36015995e-02 0.00000000e+00 8.72031990e-02 4.36015995e-02 1.30804798e-01 4.36015995e-02 4.36015995e-02 8.72031990e-02 0.00000000e+00 0.00000000e+00 1.30804798e-01 0.00000000e+00 8.72031990e-02 8.72031990e-02 4.36015995e-02 1.74406398e-01 4.36015995e-02 0.00000000e+00 4.36015995e-02 1.30804798e-01 0.00000000e+00 8.72031990e-02 4.36015995e-02 4.36015995e-02 0.00000000e+00 4.36015995e-02 8.72031990e-02 8.72031990e-02 8.72031990e-02 8.72031990e-02 1.30804798e-01 1.30804798e-01 1.30804798e-01 4.36015995e-02 0.00000000e+00 0.00000000e+00 1.30804798e-01 4.36015995e-02 1.30804798e-01 4.36015995e-02 1.30804798e-01 0.00000000e+00 4.36015995e-02 1.74406398e-01 8.72031990e-02 1.30804798e-01 4.36015995e-02 4.36015995e-02 2.61609597e-01 4.36015995e-02 1.30804798e-01 1.30804798e-01 8.72031990e-02 0.00000000e+00 1.74406398e-01 4.36015995e-02 4.36015995e-02 8.72031990e-02 8.72031990e-02 4.36015995e-02 1.30804798e-01 8.72031990e-02 0.00000000e+00 4.36015995e-02 8.72031990e-02 0.00000000e+00 2.18007997e-01 8.72031990e-02 0.00000000e+00 0.00000000e+00 8.72031990e-02 1.74406398e-01 8.72031990e-02 8.72031990e-02 4.36015995e-02 4.36015995e-02 4.36015995e-02 4.36015995e-02 0.00000000e+00 4.36015995e-02 1.74406398e-01 0.00000000e+00 4.36015995e-02 2.18007997e-01 3.05211196e-01 1.30804798e-01 2.61609597e-01 1.30804798e-01 0.00000000e+00 4.36015995e-02 1.30804798e-01 1.30804798e-01 8.72031990e-02 4.36015995e-02 1.74406398e-01 4.36015995e-02 1.30804798e-01 1.30804798e-01 0.00000000e+00 0.00000000e+00 1.74406398e-01 1.30804798e-01 1.74406398e-01 1.74406398e-01 1.30804798e-01 0.00000000e+00 0.00000000e+00 4.36015995e-02 8.72031990e-02 1.30804798e-01 4.36015995e-02 1.30804798e-01 8.72031990e-02 1.30804798e-01 8.72031990e-02 8.72031990e-02 1.74406398e-01 8.72031990e-02 8.72031990e-02 2.61609597e-01 8.72031990e-02 1.30804798e-01 8.72031990e-02 8.72031990e-02 0.00000000e+00 4.36015995e-02 2.61609597e-01 1.30804798e-01 4.36015995e-02 0.00000000e+00 0.00000000e+00 4.36015995e-02 8.72031990e-02 8.72031990e-02 1.30804798e-01 8.72031990e-02 0.00000000e+00 8.72031990e-02 8.72031990e-02 4.36015995e-02 4.36015995e-02 8.72031990e-02 1.74406398e-01 1.30804798e-01 1.74406398e-01 0.00000000e+00 0.00000000e+00 4.36015995e-02 8.72031990e-02 8.72031990e-02 4.36015995e-02 4.36015995e-02 0.00000000e+00 8.72031990e-02 8.72031990e-02 0.00000000e+00 0.00000000e+00 8.72031990e-02 8.72031990e-02 4.36015995e-02 8.72031990e-02 4.36015995e-02 1.30804798e-01 4.36015995e-02 1.30804798e-01 0.00000000e+00 4.36015995e-02 4.36015995e-02 4.36015995e-02 1.30804798e-01 4.36015995e-02 1.30804798e-01 4.36015995e-02 4.36015995e-02 3.05211196e-01 8.72031990e-02 8.72031990e-02 4.36015995e-02 4.36015995e-02 4.36015995e-02 8.72031990e-02 1.30804798e-01 1.74406398e-01 2.61609597e-01 4.36015995e-02 4.36015995e-02 1.30804798e-01 1.30804798e-01 1.30804798e-01 8.72031990e-02 8.72031990e-02 1.74406398e-01 1.30804798e-01 0.00000000e+00 2.61609597e-01 0.00000000e+00 4.36015995e-02 8.72031990e-02 1.74406398e-01 1.74406398e-01 8.72031990e-02 8.72031990e-02 1.30804798e-01 8.72031990e-02 0.00000000e+00 4.36015995e-02 2.18007997e-01 8.72031990e-02 2.18007997e-01 8.72031990e-02 4.36015995e-02 4.36015995e-02 1.30804798e-01 4.36015995e-02 8.72031990e-02 2.18007997e-01 1.30804798e-01 0.00000000e+00 0.00000000e+00 4.36015995e-02 0.00000000e+00 8.72031990e-02 4.36015995e-02 8.72031990e-02 4.36015995e-02 0.00000000e+00 1.30804798e-01 4.36015995e-02 8.72031990e-02 8.72031990e-02 1.30804798e-01 1.74406398e-01 1.30804798e-01 8.72031990e-02 8.72031990e-02 8.72031990e-02 8.72031990e-02 4.36015995e-02 8.72031990e-02 4.36015995e-02 4.36015995e-02 4.36015995e-02 1.30804798e-01 1.30804798e-01 1.30804798e-01 4.36015995e-02 0.00000000e+00 1.74406398e-01 8.72031990e-02 1.30804798e-01 0.00000000e+00 8.72031990e-02 1.74406398e-01 0.00000000e+00 1.74406398e-01 0.00000000e+00 8.72031990e-02 1.30804798e-01 4.36015995e-02 8.72031990e-02 4.36015995e-02 8.72031990e-02 1.74406398e-01 8.72031990e-02 4.36015995e-02 1.30804798e-01 8.72031990e-02 1.74406398e-01 0.00000000e+00 0.00000000e+00 4.36015995e-02 4.36015995e-02 8.72031990e-02 8.72031990e-02 1.74406398e-01 4.36015995e-02 8.72031990e-02 1.30804798e-01 4.36015995e-02 0.00000000e+00 4.36015995e-02 1.30804798e-01 4.36015995e-02 8.72031990e-02 1.30804798e-01 1.30804798e-01 8.72031990e-02 8.72031990e-02 8.72031990e-02 0.00000000e+00 0.00000000e+00 1.30804798e-01 4.36015995e-02 8.72031990e-02 1.30804798e-01 1.30804798e-01 2.18007997e-01 8.72031990e-02 1.30804798e-01 8.72031990e-02 8.72031990e-02 4.36015995e-02 4.36015995e-02 1.30804798e-01 0.00000000e+00 0.00000000e+00 0.00000000e+00 4.36015995e-02 1.74406398e-01 1.74406398e-01 4.36015995e-02 8.72031990e-02 8.72031990e-02 8.72031990e-02 4.36015995e-02 1.74406398e-01 0.00000000e+00 1.30804798e-01 8.72031990e-02 8.72031990e-02 1.30804798e-01 1.30804798e-01 4.36015995e-02 4.36015995e-02 4.36015995e-02 1.30804798e-01 0.00000000e+00 8.72031990e-02 8.72031990e-02 0.00000000e+00 0.00000000e+00 1.74406398e-01 1.30804798e-01 4.36015995e-02 0.00000000e+00 4.36015995e-02 8.72031990e-02 1.30804798e-01 8.72031990e-02 4.36015995e-02 0.00000000e+00 4.36015995e-02 4.36015995e-02 1.30804798e-01 1.30804798e-01 8.72031990e-02 4.36015995e-02 8.72031990e-02 1.74406398e-01 4.36015995e-02 1.30804798e-01 1.30804798e-01 4.36015995e-02 8.72031990e-02 1.30804798e-01 1.30804798e-01 1.74406398e-01 1.74406398e-01 1.74406398e-01 8.72031990e-02 1.30804798e-01 4.36015995e-02 8.72031990e-02 1.30804798e-01 4.36015995e-02 1.74406398e-01 1.30804798e-01 8.72031990e-02 4.36015995e-02 0.00000000e+00 2.18007997e-01 1.30804798e-01 8.72031990e-02 1.30804798e-01 0.00000000e+00 4.36015995e-02 2.18007997e-01 8.72031990e-02 1.30804798e-01 8.72031990e-02 1.74406398e-01 8.72031990e-02 8.72031990e-02 1.30804798e-01 2.18007997e-01 0.00000000e+00 4.36015995e-02 4.36015995e-02 1.30804798e-01 1.74406398e-01 4.36015995e-02 8.72031990e-02 1.74406398e-01 0.00000000e+00 4.36015995e-02 4.36015995e-02 8.72031990e-02 1.74406398e-01 8.72031990e-02 0.00000000e+00 4.36015995e-02 8.72031990e-02 4.36015995e-02 4.36015995e-02 1.74406398e-01 8.72031990e-02 0.00000000e+00 2.18007997e-01 0.00000000e+00 0.00000000e+00 2.18007997e-01 0.00000000e+00 4.36015995e-02 1.30804798e-01 8.72031990e-02 8.72031990e-02 8.72031990e-02 4.36015995e-02 2.18007997e-01 0.00000000e+00 8.72031990e-02 1.30804798e-01 1.30804798e-01 4.36015995e-02 4.36015995e-02 8.72031990e-02 1.30804798e-01 1.74406398e-01 4.36015995e-02 4.36015995e-02 4.36015995e-02 1.74406398e-01 8.72031990e-02 8.72031990e-02 0.00000000e+00 1.30804798e-01 1.30804798e-01 8.72031990e-02 0.00000000e+00 0.00000000e+00 4.36015995e-02 4.36015995e-02 4.36015995e-02 0.00000000e+00 1.74406398e-01 4.36015995e-02 4.36015995e-02 4.36015995e-02 4.36015995e-02 4.36015995e-02 0.00000000e+00 2.18007997e-01 8.72031990e-02 3.05211196e-01 8.72031990e-02 8.72031990e-02 1.30804798e-01 8.72031990e-02 1.30804798e-01 4.36015995e-02 8.72031990e-02 4.36015995e-02 1.30804798e-01 1.74406398e-01 1.74406398e-01 4.36015995e-02 8.72031990e-02 8.72031990e-02 1.30804798e-01 1.30804798e-01 8.72031990e-02 2.61609597e-01 4.36015995e-02 0.00000000e+00 8.72031990e-02 4.36015995e-02 8.72031990e-02 4.36015995e-02 1.74406398e-01 4.36015995e-02 8.72031990e-02 8.72031990e-02 8.72031990e-02 1.30804798e-01 1.30804798e-01 4.36015995e-02 1.30804798e-01 1.74406398e-01 2.61609597e-01 8.72031990e-02 8.72031990e-02 0.00000000e+00 8.72031990e-02 1.30804798e-01 1.74406398e-01 1.74406398e-01 1.74406398e-01 4.36015995e-02 8.72031990e-02 1.30804798e-01 8.72031990e-02 8.72031990e-02 8.72031990e-02 1.74406398e-01 2.18007997e-01 4.36015995e-02 8.72031990e-02 1.74406398e-01 1.30804798e-01 4.36015995e-02 8.72031990e-02 8.72031990e-02 1.74406398e-01 8.72031990e-02 2.18007997e-01 1.30804798e-01 4.36015995e-02 4.36015995e-02 8.72031990e-02 0.00000000e+00 8.72031990e-02 0.00000000e+00 4.36015995e-02 1.30804798e-01 4.36015995e-02 8.72031990e-02 2.18007997e-01 4.36015995e-02 0.00000000e+00 4.36015995e-02 4.36015995e-02 8.72031990e-02 1.30804798e-01 0.00000000e+00 0.00000000e+00 4.36015995e-02 1.30804798e-01 2.61609597e-01 2.61609597e-01 1.74406398e-01 8.72031990e-02 1.30804798e-01 4.36015995e-02 4.36015995e-02 1.74406398e-01 8.72031990e-02 1.74406398e-01 2.18007997e-01 1.30804798e-01 4.36015995e-02 8.72031990e-02 1.30804798e-01 8.72031990e-02 8.72031990e-02 0.00000000e+00 4.36015995e-02 0.00000000e+00 8.72031990e-02 0.00000000e+00 8.72031990e-02 4.36015995e-02 0.00000000e+00 1.30804798e-01 1.30804798e-01 4.36015995e-02 4.36015995e-02 4.36015995e-02 4.36015995e-02 4.36015995e-02 8.72031990e-02 8.72031990e-02 8.72031990e-02 0.00000000e+00 8.72031990e-02 4.36015995e-02 1.30804798e-01 4.36015995e-02 8.72031990e-02 1.30804798e-01 8.72031990e-02 2.18007997e-01 8.72031990e-02 8.72031990e-02 8.72031990e-02 8.72031990e-02 1.30804798e-01 4.36015995e-02 8.72031990e-02 8.72031990e-02 4.36015995e-02 1.30804798e-01 4.36015995e-02 4.36015995e-02 8.72031990e-02 1.30804798e-01 1.30804798e-01 1.74406398e-01 1.30804798e-01 2.61609597e-01 1.30804798e-01 1.30804798e-01 4.36015995e-02 1.30804798e-01 0.00000000e+00 4.36015995e-02 0.00000000e+00 8.72031990e-02 4.36015995e-02 8.72031990e-02 8.72031990e-02 1.30804798e-01 4.36015995e-02 4.36015995e-02 1.74406398e-01 8.72031990e-02 8.72031990e-02 8.72031990e-02 4.36015995e-02 1.30804798e-01 1.30804798e-01 1.30804798e-01 4.36015995e-02 8.72031990e-02 0.00000000e+00 8.72031990e-02 0.00000000e+00 3.05211196e-01 1.74406398e-01 8.72031990e-02 0.00000000e+00 1.30804798e-01 8.72031990e-02 8.72031990e-02 8.72031990e-02 1.30804798e-01 1.74406398e-01 8.72031990e-02 8.72031990e-02 1.30804798e-01 0.00000000e+00 8.72031990e-02 1.74406398e-01 1.30804798e-01 8.72031990e-02 8.72031990e-02 4.36015995e-02 4.36015995e-02 8.72031990e-02 8.72031990e-02 8.72031990e-02 8.72031990e-02 1.74406398e-01 8.72031990e-02 8.72031990e-02 8.72031990e-02 4.36015995e-02 4.36015995e-02 4.36015995e-02 1.30804798e-01 1.74406398e-01 1.30804798e-01 8.72031990e-02 8.72031990e-02 8.72031990e-02 8.72031990e-02 1.30804798e-01 4.36015995e-02 1.30804798e-01 4.36015995e-02 4.36015995e-02 4.36015995e-02 1.30804798e-01 0.00000000e+00 4.36015995e-02 8.72031990e-02 8.72031990e-02 2.61609597e-01 0.00000000e+00 4.36015995e-02 4.36015995e-02 8.72031990e-02 8.72031990e-02 4.36015995e-02 8.72031990e-02 8.72031990e-02 1.74406398e-01 4.36015995e-02 4.36015995e-02 1.74406398e-01 4.36015995e-02 4.36015995e-02 4.36015995e-02 0.00000000e+00 8.72031990e-02 8.72031990e-02 4.36015995e-02 1.30804798e-01 8.72031990e-02 0.00000000e+00 8.72031990e-02 8.72031990e-02 4.36015995e-02 4.36015995e-02 8.72031990e-02 8.72031990e-02 4.36015995e-02 8.72031990e-02 0.00000000e+00 1.30804798e-01 1.30804798e-01 8.72031990e-02 1.30804798e-01 1.74406398e-01 4.36015995e-02 1.30804798e-01 1.74406398e-01 4.36015995e-02 1.74406398e-01 8.72031990e-02 8.72031990e-02 1.74406398e-01 4.36015995e-02 8.72031990e-02 4.36015995e-02 8.72031990e-02 0.00000000e+00 8.72031990e-02 8.72031990e-02 1.30804798e-01 8.72031990e-02 4.36015995e-02 8.72031990e-02 2.18007997e-01 0.00000000e+00 4.36015995e-02 8.72031990e-02 1.30804798e-01 8.72031990e-02 0.00000000e+00 0.00000000e+00 1.30804798e-01 4.36015995e-02 1.30804798e-01 1.30804798e-01 8.72031990e-02 4.36015995e-02 8.72031990e-02 8.72031990e-02 1.30804798e-01 8.72031990e-02 0.00000000e+00 4.36015995e-02 1.30804798e-01 1.74406398e-01 8.72031990e-02 8.72031990e-02 8.72031990e-02 4.36015995e-02 1.30804798e-01 2.18007997e-01 1.74406398e-01 1.30804798e-01 1.74406398e-01 1.30804798e-01 1.30804798e-01 1.30804798e-01 4.36015995e-02 8.72031990e-02 1.30804798e-01 8.72031990e-02 1.74406398e-01 0.00000000e+00 8.72031990e-02 4.36015995e-02 4.36015995e-02 1.30804798e-01 4.36015995e-02 8.72031990e-02 8.72031990e-02 1.30804798e-01 1.30804798e-01 4.36015995e-02 0.00000000e+00 8.72031990e-02 8.72031990e-02 8.72031990e-02 4.36015995e-02 8.72031990e-02 8.72031990e-02 4.36015995e-02 4.36015995e-02 8.72031990e-02 4.36015995e-02 2.18007997e-01 1.30804798e-01 4.36015995e-02 8.72031990e-02 1.30804798e-01 1.30804798e-01 1.30804798e-01 8.72031990e-02 4.36015995e-02 8.72031990e-02 4.36015995e-02 8.72031990e-02 1.30804798e-01 8.72031990e-02 8.72031990e-02 1.30804798e-01 4.36015995e-02 8.72031990e-02 8.72031990e-02 4.36015995e-02 2.18007997e-01 1.74406398e-01 8.72031990e-02 8.72031990e-02 8.72031990e-02 1.74406398e-01 0.00000000e+00 8.72031990e-02 8.72031990e-02 4.36015995e-02 2.18007997e-01 2.61609597e-01 8.72031990e-02 4.36015995e-02 4.36015995e-02 8.72031990e-02 0.00000000e+00 1.30804798e-01 1.30804798e-01 1.74406398e-01 0.00000000e+00 4.36015995e-02 8.72031990e-02 8.72031990e-02 0.00000000e+00 8.72031990e-02 8.72031990e-02 1.30804798e-01 2.18007997e-01 0.00000000e+00 1.74406398e-01 1.30804798e-01 0.00000000e+00 4.36015995e-02 1.74406398e-01 1.30804798e-01 4.36015995e-02 1.30804798e-01 8.72031990e-02 0.00000000e+00 1.30804798e-01 8.72031990e-02 4.36015995e-02 8.72031990e-02 1.30804798e-01 4.36015995e-02 4.36015995e-02 4.36015995e-02 8.72031990e-02 4.36015995e-02 4.36015995e-02 4.36015995e-02 2.18007997e-01 1.30804798e-01 2.18007997e-01 4.36015995e-02 0.00000000e+00 1.74406398e-01 1.30804798e-01 4.36015995e-02 8.72031990e-02 4.36015995e-02 0.00000000e+00 1.30804798e-01 8.72031990e-02 4.36015995e-02 3.05211196e-01 8.72031990e-02 8.72031990e-02 2.18007997e-01 1.30804798e-01 0.00000000e+00 0.00000000e+00 1.30804798e-01 4.36015995e-02 8.72031990e-02 1.30804798e-01 0.00000000e+00 1.30804798e-01 1.30804798e-01 1.30804798e-01 0.00000000e+00 8.72031990e-02 8.72031990e-02 8.72031990e-02 1.30804798e-01 8.72031990e-02 2.18007997e-01 8.72031990e-02 0.00000000e+00 4.36015995e-02 1.30804798e-01 8.72031990e-02 0.00000000e+00 0.00000000e+00 8.72031990e-02 8.72031990e-02 1.30804798e-01 1.74406398e-01 1.30804798e-01 4.36015995e-02 1.74406398e-01 8.72031990e-02 2.61609597e-01 4.36015995e-02 8.72031990e-02 3.48812796e-01 4.36015995e-02 8.72031990e-02 4.36015995e-02 1.30804798e-01 8.72031990e-02 4.36015995e-02 1.30804798e-01 4.36015995e-02 2.18007997e-01 4.36015995e-02 0.00000000e+00 1.30804798e-01 1.74406398e-01 0.00000000e+00 0.00000000e+00 2.61609597e-01 2.18007997e-01 1.30804798e-01 1.30804798e-01 4.36015995e-02 8.72031990e-02 0.00000000e+00 0.00000000e+00 4.36015995e-02 4.36015995e-02 1.30804798e-01 8.72031990e-02 4.36015995e-02 8.72031990e-02 8.72031990e-02 1.30804798e-01 1.74406398e-01 1.74406398e-01 4.36015995e-02 8.72031990e-02 4.36015995e-02 1.30804798e-01 8.72031990e-02 1.30804798e-01 8.72031990e-02 8.72031990e-02 1.30804798e-01 1.30804798e-01 4.36015995e-02 1.30804798e-01 1.30804798e-01 1.30804798e-01 1.30804798e-01 8.72031990e-02 8.72031990e-02 4.36015995e-02 4.36015995e-02 8.72031990e-02 4.36015995e-02 8.72031990e-02 8.72031990e-02 4.36015995e-02 1.30804798e-01 1.74406398e-01 8.72031990e-02 1.30804798e-01 0.00000000e+00 0.00000000e+00 4.36015995e-02 1.30804798e-01 1.30804798e-01 4.36015995e-02 2.18007997e-01 0.00000000e+00 8.72031990e-02 4.36015995e-02 0.00000000e+00 4.36015995e-02 4.36015995e-02 1.74406398e-01 8.72031990e-02 8.72031990e-02 1.30804798e-01 1.74406398e-01 8.72031990e-02 1.30804798e-01 1.74406398e-01 1.74406398e-01 8.72031990e-02 1.74406398e-01 8.72031990e-02 4.36015995e-02 8.72031990e-02 8.72031990e-02 1.30804798e-01 4.36015995e-02 8.72031990e-02 4.36015995e-02 1.30804798e-01 0.00000000e+00 1.30804798e-01 1.30804798e-01 8.72031990e-02 4.36015995e-02 2.61609597e-01 8.72031990e-02 4.36015995e-02 4.36015995e-02 8.72031990e-02 1.30804798e-01 4.36015995e-02 1.30804798e-01 8.72031990e-02 1.30804798e-01 1.74406398e-01 8.72031990e-02 0.00000000e+00 1.30804798e-01 1.74406398e-01 1.74406398e-01 4.36015995e-02 2.18007997e-01 1.30804798e-01 1.30804798e-01 2.61609597e-01 4.36015995e-02 4.36015995e-02 1.30804798e-01 8.72031990e-02 4.36015995e-02 0.00000000e+00 8.72031990e-02 4.36015995e-02 4.36015995e-02 8.72031990e-02 8.72031990e-02 4.36015995e-02 8.72031990e-02 8.72031990e-02 8.72031990e-02 1.74406398e-01 0.00000000e+00 8.72031990e-02 1.30804798e-01 8.72031990e-02 8.72031990e-02 2.18007997e-01 8.72031990e-02 2.18007997e-01 0.00000000e+00 8.72031990e-02 4.36015995e-02 4.36015995e-02 0.00000000e+00 1.30804798e-01 8.72031990e-02 4.36015995e-02 4.36015995e-02 1.30804798e-01 1.74406398e-01 4.36015995e-02 8.72031990e-02 4.36015995e-02 4.36015995e-02 0.00000000e+00 0.00000000e+00 4.36015995e-02 0.00000000e+00 1.74406398e-01 0.00000000e+00 1.74406398e-01 1.74406398e-01 4.36015995e-02 1.30804798e-01 8.72031990e-02 8.72031990e-02 4.36015995e-02 8.72031990e-02 0.00000000e+00 8.72031990e-02 1.30804798e-01 4.36015995e-02 4.36015995e-02 1.30804798e-01 8.72031990e-02 0.00000000e+00 1.30804798e-01 4.36015995e-02 4.36015995e-02 8.72031990e-02 1.74406398e-01 4.36015995e-02 4.36015995e-02 1.30804798e-01 8.72031990e-02 1.30804798e-01 1.74406398e-01 4.36015995e-02 1.30804798e-01 0.00000000e+00 8.72031990e-02 8.72031990e-02 1.74406398e-01 1.74406398e-01 4.36015995e-02 8.72031990e-02 1.30804798e-01 1.30804798e-01 1.74406398e-01 0.00000000e+00 0.00000000e+00 3.05211196e-01 4.36015995e-02 4.36015995e-02 4.36015995e-02 1.30804798e-01 8.72031990e-02 8.72031990e-02 8.72031990e-02 1.74406398e-01 8.72031990e-02 0.00000000e+00 1.30804798e-01 0.00000000e+00 4.36015995e-02 1.74406398e-01 1.30804798e-01 8.72031990e-02 8.72031990e-02 8.72031990e-02 4.36015995e-02 4.36015995e-02 4.36015995e-02 8.72031990e-02 8.72031990e-02 4.36015995e-02 4.36015995e-02 0.00000000e+00 8.72031990e-02 1.74406398e-01 1.30804798e-01 1.74406398e-01 4.36015995e-02 4.36015995e-02 0.00000000e+00 8.72031990e-02 8.72031990e-02 1.74406398e-01 1.30804798e-01 0.00000000e+00 8.72031990e-02 8.72031990e-02 1.30804798e-01 4.36015995e-02 8.72031990e-02 8.72031990e-02 4.36015995e-02 8.72031990e-02 8.72031990e-02 2.18007997e-01 4.36015995e-02 3.48812796e-01 0.00000000e+00 8.72031990e-02 0.00000000e+00 1.30804798e-01 1.30804798e-01 1.30804798e-01 1.30804798e-01 8.72031990e-02 8.72031990e-02 4.36015995e-02 1.30804798e-01 1.74406398e-01 1.30804798e-01 8.72031990e-02 0.00000000e+00 1.74406398e-01 0.00000000e+00 1.74406398e-01 8.72031990e-02 1.74406398e-01 2.18007997e-01 2.18007997e-01 1.30804798e-01 0.00000000e+00 4.36015995e-02 4.36015995e-02 1.30804798e-01 4.36015995e-02 8.72031990e-02 8.72031990e-02 4.36015995e-02 0.00000000e+00 1.74406398e-01 1.74406398e-01 1.30804798e-01 8.72031990e-02 8.72031990e-02 0.00000000e+00 4.36015995e-02 1.30804798e-01 8.72031990e-02 4.36015995e-02 1.30804798e-01 8.72031990e-02 8.72031990e-02 0.00000000e+00 4.36015995e-02 0.00000000e+00 4.36015995e-02 3.48812796e-01 4.36015995e-02 1.30804798e-01 8.72031990e-02 2.18007997e-01 8.72031990e-02 1.30804798e-01 0.00000000e+00 8.72031990e-02 8.72031990e-02 1.74406398e-01 8.72031990e-02 8.72031990e-02 4.36015995e-02 8.72031990e-02 8.72031990e-02 8.72031990e-02 4.36015995e-02 4.36015995e-02 4.36015995e-02 0.00000000e+00 8.72031990e-02 0.00000000e+00 1.30804798e-01 0.00000000e+00 8.72031990e-02 4.36015995e-02 8.72031990e-02 4.36015995e-02 4.36015995e-02 0.00000000e+00 8.72031990e-02 1.30804798e-01 4.36015995e-02 2.61609597e-01 1.74406398e-01 0.00000000e+00 4.36015995e-02 4.36015995e-02 4.36015995e-02 8.72031990e-02 1.30804798e-01 1.30804798e-01 4.36015995e-02 4.36015995e-02 2.18007997e-01 4.36015995e-02 1.74406398e-01 8.72031990e-02 8.72031990e-02 8.72031990e-02 8.72031990e-02 4.36015995e-02 8.72031990e-02 2.18007997e-01 0.00000000e+00 1.30804798e-01 4.36015995e-02 8.72031990e-02 8.72031990e-02 1.30804798e-01 4.36015995e-02 1.30804798e-01 8.72031990e-02 0.00000000e+00 4.36015995e-02 4.36015995e-02 2.18007997e-01 8.72031990e-02 0.00000000e+00 4.36015995e-02 1.30804798e-01 8.72031990e-02 1.30804798e-01 4.36015995e-02 0.00000000e+00 8.72031990e-02 1.74406398e-01 2.18007997e-01 4.36015995e-02 8.72031990e-02 8.72031990e-02 1.74406398e-01 1.74406398e-01 8.72031990e-02 8.72031990e-02 1.30804798e-01 4.36015995e-02 8.72031990e-02 2.18007997e-01 1.30804798e-01 4.36015995e-02 8.72031990e-02 1.74406398e-01 1.30804798e-01 8.72031990e-02 1.74406398e-01 8.72031990e-02 1.30804798e-01 4.36015995e-02 0.00000000e+00 8.72031990e-02 0.00000000e+00 0.00000000e+00 8.72031990e-02 0.00000000e+00 8.72031990e-02 4.36015995e-02 8.72031990e-02 1.74406398e-01 1.30804798e-01 1.30804798e-01 4.36015995e-02 4.36015995e-02 8.72031990e-02 1.30804798e-01 8.72031990e-02 4.36015995e-02 8.72031990e-02 4.36015995e-02 8.72031990e-02 1.74406398e-01 1.30804798e-01 8.72031990e-02 1.30804798e-01 2.61609597e-01 8.72031990e-02 4.36015995e-02 8.72031990e-02 1.30804798e-01 4.36015995e-02 1.30804798e-01 8.72031990e-02 1.30804798e-01 1.30804798e-01 8.72031990e-02 1.74406398e-01 8.72031990e-02 1.74406398e-01 1.30804798e-01 8.72031990e-02 1.74406398e-01 8.72031990e-02 1.74406398e-01 1.30804798e-01 4.36015995e-02 4.36015995e-02 1.30804798e-01 1.74406398e-01 2.18007997e-01 4.36015995e-02 1.30804798e-01 1.30804798e-01 4.36015995e-02 0.00000000e+00 1.30804798e-01 8.72031990e-02 0.00000000e+00 4.36015995e-02 8.72031990e-02 0.00000000e+00 4.36015995e-02 4.36015995e-02 8.72031990e-02 8.72031990e-02 4.36015995e-02 1.74406398e-01 0.00000000e+00 1.30804798e-01 4.36015995e-02 0.00000000e+00 1.30804798e-01 4.36015995e-02 2.18007997e-01 8.72031990e-02 8.72031990e-02 4.36015995e-02 1.30804798e-01 0.00000000e+00 8.72031990e-02 8.72031990e-02 1.30804798e-01 0.00000000e+00 4.36015995e-02 1.30804798e-01 4.36015995e-02 8.72031990e-02 8.72031990e-02 1.30804798e-01 1.30804798e-01 0.00000000e+00 4.36015995e-02 8.72031990e-02 1.30804798e-01 8.72031990e-02 1.30804798e-01 4.36015995e-02 1.30804798e-01 1.30804798e-01 1.74406398e-01 1.74406398e-01 8.72031990e-02 4.36015995e-02 8.72031990e-02 8.72031990e-02 1.30804798e-01 8.72031990e-02 8.72031990e-02 4.36015995e-02 8.72031990e-02 4.36015995e-02 1.30804798e-01 4.36015995e-02 1.74406398e-01 4.36015995e-02 8.72031990e-02 8.72031990e-02 1.74406398e-01 2.18007997e-01 2.61609597e-01 0.00000000e+00 1.30804798e-01 1.30804798e-01 1.74406398e-01 8.72031990e-02 1.30804798e-01 0.00000000e+00 4.36015995e-02 8.72031990e-02 1.30804798e-01 8.72031990e-02 1.30804798e-01 4.36015995e-02 0.00000000e+00 4.36015995e-02 4.36015995e-02 1.30804798e-01 1.30804798e-01 0.00000000e+00 8.72031990e-02 8.72031990e-02 1.30804798e-01 2.18007997e-01 0.00000000e+00 2.18007997e-01 0.00000000e+00 1.30804798e-01 1.30804798e-01 0.00000000e+00 1.74406398e-01 8.72031990e-02 2.61609597e-01 0.00000000e+00 4.36015995e-02 4.36015995e-02 4.36015995e-02 1.74406398e-01 1.30804798e-01 1.30804798e-01 4.36015995e-02 4.36015995e-02 1.74406398e-01 8.72031990e-02 1.74406398e-01 1.74406398e-01 1.30804798e-01 1.74406398e-01 1.30804798e-01 1.74406398e-01 0.00000000e+00 4.36015995e-02 1.74406398e-01 0.00000000e+00 8.72031990e-02 8.72031990e-02 4.36015995e-02 1.74406398e-01 4.36015995e-02 8.72031990e-02 1.30804798e-01 8.72031990e-02 8.72031990e-02 1.74406398e-01 1.30804798e-01 8.72031990e-02 1.30804798e-01 8.72031990e-02 1.30804798e-01 8.72031990e-02 8.72031990e-02 0.00000000e+00 1.30804798e-01 1.74406398e-01 8.72031990e-02 1.30804798e-01 4.36015995e-02 0.00000000e+00 1.30804798e-01 4.36015995e-02 4.36015995e-02 8.72031990e-02 4.36015995e-02 0.00000000e+00 4.36015995e-02 4.36015995e-02 8.72031990e-02 4.36015995e-02 0.00000000e+00 4.36015995e-02 8.72031990e-02 0.00000000e+00 2.61609597e-01 1.74406398e-01 8.72031990e-02 1.30804798e-01 8.72031990e-02 0.00000000e+00 1.30804798e-01 8.72031990e-02 1.74406398e-01 0.00000000e+00 4.36015995e-02 0.00000000e+00 1.30804798e-01 8.72031990e-02 8.72031990e-02 4.36015995e-02 1.30804798e-01 1.74406398e-01 4.36015995e-02 1.74406398e-01 8.72031990e-02 8.72031990e-02 1.30804798e-01 4.36015995e-02 4.36015995e-02 8.72031990e-02 1.30804798e-01 4.36015995e-02 8.72031990e-02 1.30804798e-01 4.36015995e-02 1.74406398e-01 4.36015995e-02 4.36015995e-02 4.36015995e-02 8.72031990e-02 1.30804798e-01 1.30804798e-01 4.36015995e-02 8.72031990e-02 4.36015995e-02 1.30804798e-01 8.72031990e-02 8.72031990e-02 8.72031990e-02 4.36015995e-02 1.74406398e-01 4.36015995e-02 4.36015995e-02 1.30804798e-01 1.30804798e-01 1.30804798e-01 2.18007997e-01 0.00000000e+00 1.30804798e-01 8.72031990e-02 4.36015995e-02 1.30804798e-01 1.74406398e-01 1.74406398e-01 1.30804798e-01 4.36015995e-02 0.00000000e+00 1.30804798e-01 8.72031990e-02 1.30804798e-01 3.05211196e-01 8.72031990e-02 8.72031990e-02 2.61609597e-01 8.72031990e-02 4.36015995e-02 0.00000000e+00 8.72031990e-02 8.72031990e-02 1.74406398e-01 1.30804798e-01 8.72031990e-02 1.30804798e-01 4.36015995e-02 8.72031990e-02 4.36015995e-02 4.36015995e-02 4.36015995e-02 8.72031990e-02 1.74406398e-01 8.72031990e-02 4.36015995e-02 4.36015995e-02 4.36015995e-02 4.36015995e-02 4.36015995e-02 8.72031990e-02 0.00000000e+00 8.72031990e-02 8.72031990e-02 1.74406398e-01 4.36015995e-02 1.30804798e-01 4.36015995e-02 4.36015995e-02 8.72031990e-02 1.30804798e-01 4.36015995e-02 8.72031990e-02 8.72031990e-02 1.30804798e-01 8.72031990e-02 8.72031990e-02 1.30804798e-01 0.00000000e+00 8.72031990e-02 4.36015995e-02 8.72031990e-02 4.36015995e-02 0.00000000e+00 0.00000000e+00 4.36015995e-02 1.74406398e-01 3.48812796e-01 8.72031990e-02 1.30804798e-01 1.30804798e-01 1.74406398e-01 4.36015995e-02 4.36015995e-02 1.30804798e-01 4.36015995e-02 4.36015995e-02 4.36015995e-02 4.36015995e-02 1.30804798e-01 0.00000000e+00 4.36015995e-02 0.00000000e+00 1.30804798e-01 2.18007997e-01 8.72031990e-02 1.30804798e-01 8.72031990e-02 4.36015995e-02 4.36015995e-02 8.72031990e-02 0.00000000e+00 4.36015995e-02 0.00000000e+00 1.74406398e-01 4.36015995e-02 1.30804798e-01 4.36015995e-02 1.30804798e-01 8.72031990e-02 8.72031990e-02 0.00000000e+00 8.72031990e-02 8.72031990e-02 1.30804798e-01 4.36015995e-02 8.72031990e-02 2.61609597e-01 4.36015995e-02 8.72031990e-02 1.30804798e-01 8.72031990e-02 4.36015995e-02 2.61609597e-01 8.72031990e-02 2.18007997e-01 0.00000000e+00 0.00000000e+00 0.00000000e+00 2.18007997e-01 8.72031990e-02 0.00000000e+00 4.36015995e-02 0.00000000e+00 1.30804798e-01 8.72031990e-02 1.30804798e-01 8.72031990e-02 4.36015995e-02 1.74406398e-01 2.18007997e-01 8.72031990e-02 1.30804798e-01 4.36015995e-02 4.36015995e-02 8.72031990e-02 0.00000000e+00 8.72031990e-02 8.72031990e-02 2.61609597e-01 1.30804798e-01 1.30804798e-01 4.36015995e-02 8.72031990e-02 1.30804798e-01 3.05211196e-01 4.36015995e-02 1.30804798e-01 1.30804798e-01 2.61609597e-01 4.36015995e-02 0.00000000e+00 4.36015995e-02 4.36015995e-02 1.30804798e-01 1.74406398e-01 8.72031990e-02 8.72031990e-02 4.36015995e-02 1.30804798e-01 4.36015995e-02 4.36015995e-02 2.61609597e-01 8.72031990e-02 8.72031990e-02 4.36015995e-02 8.72031990e-02 8.72031990e-02 1.30804798e-01 1.74406398e-01 8.72031990e-02 1.30804798e-01 8.72031990e-02 4.36015995e-02 4.36015995e-02 2.61609597e-01 0.00000000e+00 8.72031990e-02 1.74406398e-01 1.30804798e-01 1.30804798e-01 8.72031990e-02 8.72031990e-02 1.74406398e-01 8.72031990e-02 1.74406398e-01 4.36015995e-02 8.72031990e-02 4.36015995e-02 1.74406398e-01 1.30804798e-01 8.72031990e-02 0.00000000e+00 4.36015995e-02 8.72031990e-02 4.36015995e-02 8.72031990e-02 4.36015995e-02 2.18007997e-01 4.36015995e-02 4.36015995e-02 8.72031990e-02 0.00000000e+00 4.36015995e-02 4.36015995e-02 0.00000000e+00 4.36015995e-02 8.72031990e-02 1.74406398e-01 1.30804798e-01 0.00000000e+00 4.36015995e-02 1.74406398e-01 1.74406398e-01 4.36015995e-02 4.36015995e-02 1.30804798e-01 4.36015995e-02 0.00000000e+00 4.36015995e-02 1.30804798e-01 4.36015995e-02 1.74406398e-01 4.36015995e-02 8.72031990e-02 8.72031990e-02 0.00000000e+00 8.72031990e-02 1.30804798e-01 1.30804798e-01 1.30804798e-01 4.36015995e-02 8.72031990e-02 1.30804798e-01 4.36015995e-02 4.36015995e-02 1.30804798e-01 1.30804798e-01 4.36015995e-02 4.36015995e-02 4.36015995e-02 4.36015995e-02 1.30804798e-01 2.61609597e-01 4.36015995e-02 8.72031990e-02 8.72031990e-02 8.72031990e-02 0.00000000e+00 8.72031990e-02 8.72031990e-02 2.18007997e-01 4.36015995e-02 4.36015995e-02 4.36015995e-02 2.18007997e-01 1.74406398e-01 1.30804798e-01 0.00000000e+00 4.36015995e-02 4.36015995e-02 4.36015995e-02 8.72031990e-02 2.18007997e-01 1.74406398e-01 4.36015995e-02 1.74406398e-01 0.00000000e+00 4.36015995e-02 4.36015995e-02 1.30804798e-01 4.36015995e-02 8.72031990e-02 1.30804798e-01 1.30804798e-01 0.00000000e+00 4.36015995e-02 1.30804798e-01 0.00000000e+00 4.36015995e-02 8.72031990e-02 4.36015995e-02 0.00000000e+00 8.72031990e-02 8.72031990e-02 4.36015995e-02 8.72031990e-02 8.72031990e-02 2.61609597e-01 2.18007997e-01 1.30804798e-01 2.18007997e-01 4.36015995e-02 8.72031990e-02 4.36015995e-02 4.36015995e-02 4.36015995e-02 8.72031990e-02 8.72031990e-02 0.00000000e+00 2.18007997e-01 8.72031990e-02 1.74406398e-01 4.36015995e-02 1.74406398e-01 4.36015995e-02 8.72031990e-02 4.36015995e-02 4.36015995e-02 4.36015995e-02 1.74406398e-01 1.74406398e-01 8.72031990e-02 8.72031990e-02 8.72031990e-02 8.72031990e-02 8.72031990e-02 0.00000000e+00 2.18007997e-01 2.18007997e-01 1.30804798e-01 1.30804798e-01 4.36015995e-02 4.36015995e-02 2.18007997e-01 1.30804798e-01 1.30804798e-01 2.18007997e-01 8.72031990e-02 4.36015995e-02 1.30804798e-01 0.00000000e+00 0.00000000e+00 4.36015995e-02 0.00000000e+00 8.72031990e-02 1.74406398e-01 8.72031990e-02 8.72031990e-02 4.36015995e-02 0.00000000e+00 4.36015995e-02 1.74406398e-01 1.74406398e-01 4.36015995e-02 0.00000000e+00 0.00000000e+00 1.30804798e-01 1.30804798e-01 4.36015995e-02 4.36015995e-02 4.36015995e-02 4.36015995e-02 1.74406398e-01 1.74406398e-01 1.30804798e-01 1.30804798e-01 1.30804798e-01 0.00000000e+00 1.74406398e-01 1.30804798e-01 4.36015995e-02 4.36015995e-02 1.30804798e-01 0.00000000e+00 1.74406398e-01 4.36015995e-02 4.36015995e-02 1.30804798e-01 4.36015995e-02 4.36015995e-02 4.36015995e-02 1.74406398e-01 1.74406398e-01 1.30804798e-01 8.72031990e-02 1.30804798e-01 8.72031990e-02 1.30804798e-01 1.30804798e-01 1.74406398e-01 8.72031990e-02 8.72031990e-02 8.72031990e-02 8.72031990e-02 1.30804798e-01 8.72031990e-02 0.00000000e+00 1.74406398e-01 1.30804798e-01 2.18007997e-01 1.30804798e-01 8.72031990e-02 8.72031990e-02 4.36015995e-02 8.72031990e-02 4.36015995e-02 8.72031990e-02 1.30804798e-01 4.36015995e-02 8.72031990e-02 4.36015995e-02 0.00000000e+00 2.18007997e-01 4.36015995e-02 8.72031990e-02 4.36015995e-02 4.36015995e-02 8.72031990e-02 8.72031990e-02 1.30804798e-01 1.30804798e-01 4.36015995e-02 4.36015995e-02 1.74406398e-01 4.36015995e-02 1.30804798e-01 0.00000000e+00 3.05211196e-01 1.30804798e-01 2.18007997e-01 4.36015995e-02 0.00000000e+00 4.36015995e-02 4.36015995e-02 8.72031990e-02 4.36015995e-02 1.30804798e-01 0.00000000e+00 1.30804798e-01 8.72031990e-02 0.00000000e+00 8.72031990e-02 1.74406398e-01 8.72031990e-02 8.72031990e-02 4.36015995e-02 4.36015995e-02 4.36015995e-02 4.36015995e-02 8.72031990e-02 8.72031990e-02 8.72031990e-02 4.36015995e-02 8.72031990e-02 1.74406398e-01 4.36015995e-02 0.00000000e+00 8.72031990e-02 8.72031990e-02 4.36015995e-02 8.72031990e-02 8.72031990e-02 4.36015995e-02 2.18007997e-01 4.36015995e-02 0.00000000e+00 4.36015995e-02 4.36015995e-02 1.74406398e-01 1.30804798e-01 0.00000000e+00 2.18007997e-01 4.36015995e-02 2.18007997e-01 1.74406398e-01 0.00000000e+00 8.72031990e-02 8.72031990e-02 4.36015995e-02 4.36015995e-02 4.36015995e-02 1.30804798e-01 0.00000000e+00 4.36015995e-02 2.18007997e-01 8.72031990e-02 1.30804798e-01 4.36015995e-02 0.00000000e+00 4.36015995e-02 0.00000000e+00 1.30804798e-01 8.72031990e-02 0.00000000e+00 8.72031990e-02 0.00000000e+00 4.36015995e-02 8.72031990e-02 4.36015995e-02 8.72031990e-02 2.61609597e-01 8.72031990e-02 8.72031990e-02 4.36015995e-02 4.36015995e-02 8.72031990e-02 8.72031990e-02 4.36015995e-02 0.00000000e+00 8.72031990e-02 0.00000000e+00 1.30804798e-01 8.72031990e-02 1.30804798e-01 2.18007997e-01 0.00000000e+00 1.30804798e-01 4.36015995e-02 1.74406398e-01 4.36015995e-02 0.00000000e+00 8.72031990e-02 8.72031990e-02 8.72031990e-02 8.72031990e-02 8.72031990e-02 4.36015995e-02 1.74406398e-01 4.36015995e-02 4.36015995e-02 0.00000000e+00 4.36015995e-02 1.74406398e-01 0.00000000e+00 1.74406398e-01 0.00000000e+00 4.36015995e-02 1.30804798e-01 1.30804798e-01 1.30804798e-01 8.72031990e-02 8.72031990e-02 1.74406398e-01 0.00000000e+00 4.36015995e-02 1.74406398e-01 4.36015995e-02 0.00000000e+00 2.18007997e-01 0.00000000e+00 1.30804798e-01 8.72031990e-02 8.72031990e-02 8.72031990e-02 2.18007997e-01 1.74406398e-01 4.36015995e-02 4.36015995e-02 1.30804798e-01 4.36015995e-02 4.36015995e-02 8.72031990e-02 4.36015995e-02 1.30804798e-01 8.72031990e-02 0.00000000e+00 0.00000000e+00 2.61609597e-01 0.00000000e+00 3.05211196e-01 8.72031990e-02 4.36015995e-02 1.74406398e-01 8.72031990e-02 0.00000000e+00 8.72031990e-02 4.36015995e-02 4.36015995e-02 8.72031990e-02 8.72031990e-02 8.72031990e-02 8.72031990e-02 4.36015995e-02 1.30804798e-01 0.00000000e+00 2.18007997e-01 0.00000000e+00 8.72031990e-02 2.61609597e-01 1.30804798e-01 4.36015995e-02 1.30804798e-01 1.30804798e-01 1.74406398e-01 1.74406398e-01 4.36015995e-02 1.30804798e-01 4.36015995e-02 4.36015995e-02 1.74406398e-01 8.72031990e-02 0.00000000e+00 8.72031990e-02 1.30804798e-01 1.74406398e-01 8.72031990e-02 4.36015995e-02 4.36015995e-02 8.72031990e-02 4.36015995e-02 0.00000000e+00 4.36015995e-02 1.30804798e-01 8.72031990e-02 8.72031990e-02 8.72031990e-02 1.30804798e-01 1.30804798e-01 8.72031990e-02 1.30804798e-01 1.74406398e-01 8.72031990e-02 1.30804798e-01 2.18007997e-01 0.00000000e+00 1.74406398e-01 8.72031990e-02 1.30804798e-01 8.72031990e-02 1.74406398e-01 8.72031990e-02 1.74406398e-01 8.72031990e-02 4.36015995e-02 1.74406398e-01 4.36015995e-02 3.05211196e-01 8.72031990e-02 4.36015995e-02 4.36015995e-02 4.36015995e-02 1.30804798e-01 4.36015995e-02 4.36015995e-02 2.18007997e-01 1.74406398e-01 0.00000000e+00 1.30804798e-01 8.72031990e-02 2.18007997e-01 8.72031990e-02 1.30804798e-01 0.00000000e+00 8.72031990e-02 8.72031990e-02 8.72031990e-02 4.36015995e-02 1.30804798e-01 8.72031990e-02 0.00000000e+00 4.36015995e-02 4.36015995e-02 2.18007997e-01 8.72031990e-02 4.36015995e-02 1.30804798e-01 1.30804798e-01 0.00000000e+00 3.05211196e-01 1.30804798e-01 1.30804798e-01 4.36015995e-02 0.00000000e+00 8.72031990e-02 8.72031990e-02 4.36015995e-02 1.30804798e-01 4.36015995e-02 1.30804798e-01 4.36015995e-02 1.30804798e-01 1.30804798e-01 8.72031990e-02 4.36015995e-02 4.36015995e-02 8.72031990e-02 4.36015995e-02 8.72031990e-02 1.30804798e-01 1.30804798e-01 8.72031990e-02 4.36015995e-02 8.72031990e-02 0.00000000e+00 1.30804798e-01 8.72031990e-02 4.36015995e-02 1.74406398e-01 1.74406398e-01 4.36015995e-02 1.74406398e-01 8.72031990e-02 8.72031990e-02 1.30804798e-01 4.36015995e-02 1.74406398e-01 0.00000000e+00 8.72031990e-02 0.00000000e+00 1.74406398e-01 0.00000000e+00 4.36015995e-02 8.72031990e-02 0.00000000e+00 2.61609597e-01 1.30804798e-01 8.72031990e-02 0.00000000e+00 4.36015995e-02 1.30804798e-01 4.36015995e-02 4.36015995e-02 8.72031990e-02 4.36015995e-02 8.72031990e-02 8.72031990e-02 4.36015995e-02 1.30804798e-01 1.74406398e-01 8.72031990e-02 4.36015995e-02 1.30804798e-01 8.72031990e-02 0.00000000e+00 8.72031990e-02 4.36015995e-02 0.00000000e+00 4.36015995e-02 1.74406398e-01 0.00000000e+00 1.74406398e-01 8.72031990e-02 8.72031990e-02 4.36015995e-02 8.72031990e-02 4.36015995e-02 0.00000000e+00 1.30804798e-01 1.30804798e-01 8.72031990e-02 0.00000000e+00 1.30804798e-01 0.00000000e+00 4.36015995e-02 2.18007997e-01 2.18007997e-01 1.30804798e-01 8.72031990e-02 8.72031990e-02 8.72031990e-02 8.72031990e-02 1.74406398e-01 0.00000000e+00 4.36015995e-02 8.72031990e-02 8.72031990e-02 1.74406398e-01 4.36015995e-02 8.72031990e-02 1.30804798e-01 0.00000000e+00 0.00000000e+00 1.74406398e-01 8.72031990e-02 4.36015995e-02 8.72031990e-02 4.36015995e-02 1.30804798e-01 4.36015995e-02 1.74406398e-01 4.36015995e-02 1.30804798e-01 1.30804798e-01 4.36015995e-02 4.36015995e-02 1.30804798e-01 0.00000000e+00 4.36015995e-02 8.72031990e-02 1.74406398e-01 8.72031990e-02 1.30804798e-01 0.00000000e+00 1.30804798e-01 8.72031990e-02 4.36015995e-02 8.72031990e-02 8.72031990e-02 0.00000000e+00 0.00000000e+00 4.36015995e-02 8.72031990e-02 8.72031990e-02 4.36015995e-02 0.00000000e+00 8.72031990e-02 0.00000000e+00 1.30804798e-01 1.30804798e-01 1.30804798e-01 1.30804798e-01 1.30804798e-01 8.72031990e-02 4.36015995e-02 4.36015995e-02 4.36015995e-02 8.72031990e-02 4.36015995e-02 1.30804798e-01 1.30804798e-01 2.18007997e-01 2.61609597e-01 1.30804798e-01 0.00000000e+00 1.30804798e-01 8.72031990e-02 8.72031990e-02 8.72031990e-02 8.72031990e-02 8.72031990e-02 4.36015995e-02 4.36015995e-02 4.36015995e-02 4.36015995e-02 8.72031990e-02 4.36015995e-02 1.30804798e-01 8.72031990e-02 1.30804798e-01 0.00000000e+00 4.36015995e-02 4.36015995e-02 4.36015995e-02 8.72031990e-02 8.72031990e-02 8.72031990e-02 8.72031990e-02 4.36015995e-02 0.00000000e+00 0.00000000e+00 1.30804798e-01 1.74406398e-01 1.30804798e-01 0.00000000e+00 1.30804798e-01 8.72031990e-02 1.30804798e-01 1.74406398e-01 1.30804798e-01 1.30804798e-01 1.74406398e-01 4.36015995e-02 4.36015995e-02 4.36015995e-02 8.72031990e-02 1.74406398e-01 2.61609597e-01 4.36015995e-02 8.72031990e-02 2.18007997e-01 4.36015995e-02 8.72031990e-02 0.00000000e+00 1.74406398e-01 8.72031990e-02 4.36015995e-02 4.36015995e-02 4.36015995e-02 8.72031990e-02 4.36015995e-02 8.72031990e-02 4.36015995e-02 8.72031990e-02 4.36015995e-02 1.30804798e-01 1.30804798e-01 8.72031990e-02 1.30804798e-01 1.74406398e-01 0.00000000e+00 3.05211196e-01 4.36015995e-02 1.30804798e-01 4.36015995e-02 8.72031990e-02 1.74406398e-01 4.36015995e-02 4.36015995e-02 1.30804798e-01 1.30804798e-01 4.36015995e-02 0.00000000e+00 1.30804798e-01 1.74406398e-01 8.72031990e-02 1.30804798e-01 1.74406398e-01 0.00000000e+00 0.00000000e+00 1.30804798e-01 8.72031990e-02 4.36015995e-02 2.18007997e-01 4.36015995e-02 1.30804798e-01 1.30804798e-01 1.30804798e-01 1.30804798e-01 1.30804798e-01 1.74406398e-01 4.36015995e-02 8.72031990e-02 4.36015995e-02 4.36015995e-02 8.72031990e-02 0.00000000e+00 1.30804798e-01 1.74406398e-01 8.72031990e-02 0.00000000e+00 8.72031990e-02 8.72031990e-02 2.18007997e-01 8.72031990e-02 4.36015995e-02 4.36015995e-02 8.72031990e-02 4.36015995e-02 4.36015995e-02 4.36015995e-02 1.74406398e-01 0.00000000e+00 8.72031990e-02 0.00000000e+00 4.36015995e-02 0.00000000e+00 4.36015995e-02 2.18007997e-01 1.30804798e-01 1.30804798e-01 1.74406398e-01 4.36015995e-02 4.36015995e-02 8.72031990e-02 4.36015995e-02 1.30804798e-01 4.36015995e-02 1.30804798e-01 1.74406398e-01 8.72031990e-02 4.36015995e-02 1.30804798e-01 4.36015995e-02 0.00000000e+00 1.30804798e-01 8.72031990e-02 1.30804798e-01 8.72031990e-02 0.00000000e+00 2.18007997e-01 4.36015995e-02 4.36015995e-02 8.72031990e-02 1.30804798e-01 1.74406398e-01 2.61609597e-01 8.72031990e-02 0.00000000e+00 4.36015995e-02 8.72031990e-02 1.30804798e-01 1.74406398e-01 4.36015995e-02 8.72031990e-02 1.30804798e-01 8.72031990e-02 8.72031990e-02 1.74406398e-01 2.18007997e-01 1.30804798e-01 1.30804798e-01 4.36015995e-02 8.72031990e-02 4.36015995e-02 0.00000000e+00 1.74406398e-01 8.72031990e-02 8.72031990e-02 8.72031990e-02 0.00000000e+00 4.36015995e-02 2.61609597e-01 4.36015995e-02 1.74406398e-01 4.36015995e-02 4.36015995e-02 4.36015995e-02 4.36015995e-02 1.30804798e-01 8.72031990e-02 1.30804798e-01 0.00000000e+00 8.72031990e-02 4.36015995e-02 4.36015995e-02 8.72031990e-02 0.00000000e+00 1.30804798e-01 1.74406398e-01 8.72031990e-02 8.72031990e-02 0.00000000e+00 1.30804798e-01 0.00000000e+00 1.74406398e-01 4.36015995e-02 0.00000000e+00 8.72031990e-02 8.72031990e-02 1.30804798e-01 8.72031990e-02 1.74406398e-01 0.00000000e+00 1.30804798e-01 4.36015995e-02 1.74406398e-01 1.30804798e-01 4.36015995e-02 1.30804798e-01 1.74406398e-01 1.30804798e-01 4.36015995e-02 0.00000000e+00 4.36015995e-02 4.36015995e-02 8.72031990e-02 4.36015995e-02 2.61609597e-01 1.74406398e-01 4.36015995e-02 4.36015995e-02 8.72031990e-02 1.30804798e-01 0.00000000e+00 0.00000000e+00 1.30804798e-01 0.00000000e+00 4.36015995e-02 8.72031990e-02 4.36015995e-02 4.36015995e-02 1.74406398e-01 8.72031990e-02 0.00000000e+00 4.36015995e-02 8.72031990e-02 2.18007997e-01 8.72031990e-02 1.30804798e-01 4.36015995e-02 2.18007997e-01 4.36015995e-02 3.05211196e-01 4.36015995e-02 8.72031990e-02 0.00000000e+00 1.30804798e-01 1.30804798e-01 8.72031990e-02 8.72031990e-02 4.36015995e-02 8.72031990e-02 1.30804798e-01 0.00000000e+00 4.36015995e-02 4.36015995e-02 1.74406398e-01 1.30804798e-01 8.72031990e-02 1.30804798e-01 8.72031990e-02 8.72031990e-02 2.61609597e-01 0.00000000e+00 8.72031990e-02 1.74406398e-01 4.36015995e-02 4.36015995e-02 1.30804798e-01 4.36015995e-02 0.00000000e+00 1.74406398e-01 0.00000000e+00 4.36015995e-02 1.74406398e-01 4.36015995e-02 1.30804798e-01 1.30804798e-01 4.36015995e-02 0.00000000e+00 4.36015995e-02 8.72031990e-02 3.05211196e-01 1.30804798e-01 8.72031990e-02 0.00000000e+00 8.72031990e-02 1.30804798e-01 8.72031990e-02 4.36015995e-02 4.36015995e-02 4.36015995e-02 8.72031990e-02 1.74406398e-01 2.18007997e-01 1.30804798e-01 8.72031990e-02 8.72031990e-02 8.72031990e-02 4.36015995e-02 4.36015995e-02 1.74406398e-01 4.36015995e-02 4.36015995e-02 4.36015995e-02 4.36015995e-02 0.00000000e+00 4.36015995e-02 0.00000000e+00 1.74406398e-01 1.30804798e-01 1.30804798e-01 4.36015995e-02 1.30804798e-01 2.18007997e-01 8.72031990e-02 1.30804798e-01 4.36015995e-02 8.72031990e-02 4.36015995e-02 8.72031990e-02 4.36015995e-02 8.72031990e-02 8.72031990e-02 1.74406398e-01 8.72031990e-02 8.72031990e-02 8.72031990e-02 0.00000000e+00 0.00000000e+00 4.36015995e-02 8.72031990e-02 1.30804798e-01 4.36015995e-02 8.72031990e-02 0.00000000e+00 1.30804798e-01 0.00000000e+00 0.00000000e+00 1.30804798e-01 8.72031990e-02 0.00000000e+00 8.72031990e-02 8.72031990e-02 1.74406398e-01 0.00000000e+00 0.00000000e+00 4.36015995e-02 4.36015995e-02 1.30804798e-01 2.18007997e-01 1.30804798e-01 4.36015995e-02 8.72031990e-02 0.00000000e+00 0.00000000e+00 0.00000000e+00 1.30804798e-01 8.72031990e-02 8.72031990e-02 1.30804798e-01 0.00000000e+00 0.00000000e+00 8.72031990e-02 8.72031990e-02 4.36015995e-02 1.30804798e-01 1.74406398e-01 2.61609597e-01 0.00000000e+00 1.74406398e-01 8.72031990e-02 1.30804798e-01 0.00000000e+00 0.00000000e+00 1.30804798e-01 8.72031990e-02 8.72031990e-02 1.30804798e-01 4.36015995e-02 0.00000000e+00 0.00000000e+00 1.74406398e-01 1.30804798e-01 1.30804798e-01 0.00000000e+00 1.30804798e-01 8.72031990e-02 1.30804798e-01 4.36015995e-02 4.36015995e-02 1.30804798e-01 8.72031990e-02 1.30804798e-01 8.72031990e-02 8.72031990e-02 4.36015995e-02 0.00000000e+00 8.72031990e-02 4.36015995e-02 1.74406398e-01 4.36015995e-02 4.36015995e-02 8.72031990e-02 8.72031990e-02 2.18007997e-01 8.72031990e-02 0.00000000e+00 1.30804798e-01 8.72031990e-02 4.36015995e-02 4.36015995e-02 4.36015995e-02 8.72031990e-02 2.18007997e-01 4.36015995e-02 4.36015995e-02 0.00000000e+00 2.18007997e-01 4.36015995e-02 8.72031990e-02 1.30804798e-01 1.74406398e-01 4.36015995e-02 8.72031990e-02 4.36015995e-02 0.00000000e+00 4.36015995e-02 1.74406398e-01 4.36015995e-02 4.36015995e-02 8.72031990e-02 0.00000000e+00 1.30804798e-01 8.72031990e-02 4.36015995e-02 1.30804798e-01 4.36015995e-02 1.30804798e-01 2.61609597e-01 4.36015995e-02 2.18007997e-01 4.36015995e-02 1.74406398e-01 8.72031990e-02 0.00000000e+00 1.30804798e-01 1.30804798e-01 1.30804798e-01 1.30804798e-01 8.72031990e-02 1.30804798e-01 8.72031990e-02 1.74406398e-01 8.72031990e-02 1.30804798e-01 4.36015995e-02 0.00000000e+00 1.30804798e-01 8.72031990e-02 8.72031990e-02 4.36015995e-02 1.30804798e-01 1.74406398e-01 4.36015995e-02 8.72031990e-02 8.72031990e-02 8.72031990e-02 1.74406398e-01 1.74406398e-01 4.36015995e-02 1.30804798e-01 4.36015995e-02 1.30804798e-01 1.74406398e-01 1.30804798e-01 8.72031990e-02 1.30804798e-01 4.36015995e-02 4.36015995e-02 4.36015995e-02 8.72031990e-02 0.00000000e+00 8.72031990e-02 1.30804798e-01 8.72031990e-02 0.00000000e+00 8.72031990e-02 1.30804798e-01 1.30804798e-01 1.30804798e-01 1.30804798e-01 4.36015995e-02 4.36015995e-02 4.36015995e-02 1.74406398e-01 4.36015995e-02 8.72031990e-02 0.00000000e+00 0.00000000e+00 4.36015995e-02 4.36015995e-02 4.36015995e-02 4.36015995e-02 0.00000000e+00 8.72031990e-02 8.72031990e-02 1.74406398e-01 1.74406398e-01 1.30804798e-01 1.74406398e-01 4.36015995e-02 1.30804798e-01 0.00000000e+00 0.00000000e+00 1.74406398e-01 8.72031990e-02 0.00000000e+00 4.36015995e-02 1.30804798e-01 8.72031990e-02 0.00000000e+00 8.72031990e-02 8.72031990e-02 4.36015995e-02 8.72031990e-02 2.18007997e-01 1.30804798e-01 8.72031990e-02 1.30804798e-01 1.74406398e-01 8.72031990e-02 8.72031990e-02 8.72031990e-02 0.00000000e+00 8.72031990e-02 8.72031990e-02 1.30804798e-01 2.61609597e-01 0.00000000e+00 2.18007997e-01 1.30804798e-01 0.00000000e+00 0.00000000e+00 8.72031990e-02 1.30804798e-01 0.00000000e+00 4.36015995e-02 1.30804798e-01 1.30804798e-01 8.72031990e-02 1.30804798e-01 4.36015995e-02 8.72031990e-02 4.36015995e-02 0.00000000e+00 1.30804798e-01 4.36015995e-02 1.30804798e-01 4.36015995e-02 8.72031990e-02 2.18007997e-01 0.00000000e+00 8.72031990e-02 8.72031990e-02 8.72031990e-02 1.30804798e-01 4.36015995e-02 8.72031990e-02 2.61609597e-01 0.00000000e+00 8.72031990e-02 1.30804798e-01 8.72031990e-02 8.72031990e-02 1.74406398e-01 4.36015995e-02 8.72031990e-02 4.36015995e-02 4.36015995e-02 4.36015995e-02 8.72031990e-02 1.30804798e-01 4.36015995e-02 8.72031990e-02 2.18007997e-01 4.36015995e-02 0.00000000e+00 1.30804798e-01 0.00000000e+00 8.72031990e-02 4.36015995e-02 8.72031990e-02 8.72031990e-02 1.74406398e-01 0.00000000e+00 0.00000000e+00 4.36015995e-02 1.30804798e-01 8.72031990e-02 1.74406398e-01 4.36015995e-02 2.61609597e-01 8.72031990e-02 1.30804798e-01 1.74406398e-01 0.00000000e+00 8.72031990e-02 1.30804798e-01 1.30804798e-01 0.00000000e+00 1.30804798e-01 8.72031990e-02 0.00000000e+00 2.18007997e-01 8.72031990e-02 8.72031990e-02 4.36015995e-02 4.36015995e-02 8.72031990e-02 4.36015995e-02 1.74406398e-01 1.30804798e-01 4.36015995e-02 1.30804798e-01 1.30804798e-01 1.30804798e-01 0.00000000e+00 1.74406398e-01 8.72031990e-02 8.72031990e-02 8.72031990e-02 1.30804798e-01 1.74406398e-01 4.36015995e-02 4.36015995e-02 8.72031990e-02 8.72031990e-02 1.30804798e-01 1.30804798e-01 1.30804798e-01 4.36015995e-02 4.36015995e-02 0.00000000e+00 8.72031990e-02 4.36015995e-02 1.74406398e-01 0.00000000e+00 8.72031990e-02 4.36015995e-02 1.74406398e-01 0.00000000e+00 4.36015995e-02 1.30804798e-01 4.36015995e-02 4.36015995e-02 8.72031990e-02 4.36015995e-02 1.30804798e-01 8.72031990e-02 1.74406398e-01 1.30804798e-01 0.00000000e+00 1.30804798e-01 3.05211196e-01 1.30804798e-01 0.00000000e+00 1.30804798e-01 8.72031990e-02 1.30804798e-01 1.30804798e-01 1.30804798e-01 0.00000000e+00 4.36015995e-02 4.36015995e-02 8.72031990e-02 4.36015995e-02 1.30804798e-01 4.36015995e-02 2.18007997e-01 1.30804798e-01 0.00000000e+00 3.48812796e-01 8.72031990e-02 1.30804798e-01 8.72031990e-02 8.72031990e-02 8.72031990e-02 8.72031990e-02 1.30804798e-01 8.72031990e-02 4.36015995e-02 1.74406398e-01 2.18007997e-01 1.30804798e-01 1.30804798e-01 8.72031990e-02 4.36015995e-02 1.30804798e-01 0.00000000e+00 0.00000000e+00 8.72031990e-02 2.61609597e-01 8.72031990e-02 1.30804798e-01 8.72031990e-02 0.00000000e+00 4.36015995e-02 0.00000000e+00 8.72031990e-02 2.18007997e-01 4.36015995e-02 8.72031990e-02 4.36015995e-02 1.30804798e-01 1.30804798e-01 2.61609597e-01 1.30804798e-01 1.74406398e-01 8.72031990e-02 0.00000000e+00 1.30804798e-01 0.00000000e+00 8.72031990e-02 1.30804798e-01 8.72031990e-02 4.36015995e-02 4.36015995e-02 1.30804798e-01 4.36015995e-02 1.30804798e-01 4.36015995e-02 8.72031990e-02 8.72031990e-02 8.72031990e-02 8.72031990e-02 1.30804798e-01 8.72031990e-02 0.00000000e+00 8.72031990e-02 0.00000000e+00 8.72031990e-02 1.74406398e-01 4.36015995e-02 8.72031990e-02 1.30804798e-01 4.36015995e-02 1.74406398e-01 2.18007997e-01 1.30804798e-01 0.00000000e+00 8.72031990e-02 8.72031990e-02 1.74406398e-01 2.18007997e-01 8.72031990e-02 8.72031990e-02 4.36015995e-02 0.00000000e+00 4.36015995e-02 1.30804798e-01 8.72031990e-02 8.72031990e-02 4.36015995e-02 1.74406398e-01 0.00000000e+00 8.72031990e-02 1.30804798e-01 1.30804798e-01 8.72031990e-02 8.72031990e-02 8.72031990e-02 4.36015995e-02 4.36015995e-02 8.72031990e-02 0.00000000e+00 0.00000000e+00 4.36015995e-02 1.30804798e-01 8.72031990e-02 8.72031990e-02 4.36015995e-02 2.18007997e-01 1.30804798e-01 1.30804798e-01 8.72031990e-02 4.36015995e-02 8.72031990e-02 8.72031990e-02 1.74406398e-01 4.36015995e-02 1.74406398e-01 8.72031990e-02 1.30804798e-01 0.00000000e+00 1.30804798e-01 4.36015995e-02 1.30804798e-01 0.00000000e+00 8.72031990e-02 8.72031990e-02 0.00000000e+00 1.30804798e-01 8.72031990e-02 1.30804798e-01 1.30804798e-01 4.36015995e-02 4.36015995e-02 8.72031990e-02 1.74406398e-01 4.36015995e-02 8.72031990e-02 8.72031990e-02 8.72031990e-02 0.00000000e+00 8.72031990e-02 8.72031990e-02 8.72031990e-02 1.74406398e-01 8.72031990e-02 8.72031990e-02 1.30804798e-01 8.72031990e-02 2.61609597e-01 2.61609597e-01 2.18007997e-01 8.72031990e-02 1.74406398e-01 8.72031990e-02 1.30804798e-01 4.36015995e-02 4.36015995e-02 4.36015995e-02 8.72031990e-02 0.00000000e+00 8.72031990e-02 4.36015995e-02 4.36015995e-02 4.36015995e-02 8.72031990e-02 8.72031990e-02 4.36015995e-02 0.00000000e+00 4.36015995e-02 1.74406398e-01 8.72031990e-02 8.72031990e-02 1.74406398e-01 8.72031990e-02 8.72031990e-02 1.30804798e-01 8.72031990e-02 8.72031990e-02 8.72031990e-02 1.74406398e-01 4.36015995e-02 8.72031990e-02 4.36015995e-02 0.00000000e+00 2.61609597e-01 8.72031990e-02 8.72031990e-02 2.18007997e-01 4.36015995e-02 1.74406398e-01 1.30804798e-01 8.72031990e-02 1.74406398e-01 4.36015995e-02 0.00000000e+00 8.72031990e-02 8.72031990e-02 4.36015995e-02 8.72031990e-02 1.30804798e-01 4.36015995e-02 4.36015995e-02 8.72031990e-02 8.72031990e-02 1.30804798e-01 4.36015995e-02 3.48812796e-01 1.74406398e-01 4.36015995e-02 4.36015995e-02 1.30804798e-01 0.00000000e+00 0.00000000e+00 1.30804798e-01 1.74406398e-01 1.30804798e-01 1.30804798e-01 4.36015995e-02 8.72031990e-02 4.36015995e-02 4.36015995e-02 1.30804798e-01 4.36015995e-02 0.00000000e+00 8.72031990e-02 1.30804798e-01 4.36015995e-02 4.36015995e-02 4.36015995e-02 4.36015995e-02 4.36015995e-02 1.74406398e-01 8.72031990e-02 8.72031990e-02 0.00000000e+00 8.72031990e-02 2.18007997e-01 1.30804798e-01 1.30804798e-01 0.00000000e+00 8.72031990e-02 4.36015995e-02 0.00000000e+00 8.72031990e-02 4.36015995e-02 8.72031990e-02 8.72031990e-02 4.36015995e-02 1.74406398e-01 4.36015995e-02 8.72031990e-02 0.00000000e+00 1.30804798e-01 1.30804798e-01 0.00000000e+00 0.00000000e+00 0.00000000e+00 4.36015995e-02 4.36015995e-02 4.36015995e-02 4.36015995e-02 8.72031990e-02 4.36015995e-02 0.00000000e+00 8.72031990e-02 1.30804798e-01 4.36015995e-02 8.72031990e-02 8.72031990e-02 4.36015995e-02 0.00000000e+00 2.61609597e-01 8.72031990e-02 8.72031990e-02 0.00000000e+00 0.00000000e+00 4.36015995e-02 8.72031990e-02 4.36015995e-02 8.72031990e-02 2.18007997e-01 1.30804798e-01 0.00000000e+00 1.30804798e-01 0.00000000e+00 1.30804798e-01 0.00000000e+00 8.72031990e-02 8.72031990e-02 0.00000000e+00 4.36015995e-02 4.36015995e-02 0.00000000e+00 4.36015995e-02 4.36015995e-02 8.72031990e-02 0.00000000e+00 8.72031990e-02 4.36015995e-02 8.72031990e-02 0.00000000e+00 4.36015995e-02 4.36015995e-02 1.30804798e-01 8.72031990e-02 8.72031990e-02 1.30804798e-01 8.72031990e-02 8.72031990e-02 2.18007997e-01 2.18007997e-01 2.61609597e-01 4.36015995e-02 0.00000000e+00 4.36015995e-02 4.36015995e-02 1.74406398e-01 1.74406398e-01 8.72031990e-02 4.36015995e-02 3.05211196e-01 8.72031990e-02 8.72031990e-02 4.36015995e-02 4.36015995e-02 0.00000000e+00 4.36015995e-02 8.72031990e-02 8.72031990e-02 4.36015995e-02 8.72031990e-02 0.00000000e+00 0.00000000e+00 4.36015995e-02 8.72031990e-02 8.72031990e-02 8.72031990e-02 8.72031990e-02 1.30804798e-01 8.72031990e-02 4.36015995e-02 1.74406398e-01 0.00000000e+00 8.72031990e-02 1.74406398e-01 1.30804798e-01 8.72031990e-02 8.72031990e-02 4.36015995e-02 0.00000000e+00 0.00000000e+00 1.30804798e-01 1.30804798e-01 4.36015995e-02 4.36015995e-02 0.00000000e+00 8.72031990e-02 1.74406398e-01 0.00000000e+00 0.00000000e+00 0.00000000e+00 0.00000000e+00 2.18007997e-01 4.36015995e-02 8.72031990e-02 8.72031990e-02 4.36015995e-02 4.36015995e-02 4.36015995e-02 1.30804798e-01 0.00000000e+00 8.72031990e-02 1.30804798e-01 8.72031990e-02 4.36015995e-02 4.36015995e-02 1.30804798e-01 1.30804798e-01 8.72031990e-02 0.00000000e+00 4.36015995e-02 8.72031990e-02 4.36015995e-02 8.72031990e-02 0.00000000e+00 0.00000000e+00 0.00000000e+00 4.36015995e-02 4.36015995e-02 0.00000000e+00 0.00000000e+00 8.72031990e-02 8.72031990e-02 8.72031990e-02 8.72031990e-02 8.72031990e-02 4.36015995e-02 8.72031990e-02 8.72031990e-02 1.30804798e-01 1.74406398e-01 0.00000000e+00 8.72031990e-02 1.74406398e-01 4.36015995e-02 4.36015995e-02 4.36015995e-02 4.36015995e-02 8.72031990e-02 4.36015995e-02 8.72031990e-02 4.36015995e-02 1.74406398e-01 8.72031990e-02 1.30804798e-01 4.36015995e-02 2.18007997e-01 8.72031990e-02 8.72031990e-02 8.72031990e-02 0.00000000e+00 0.00000000e+00 4.36015995e-02 4.36015995e-02 4.36015995e-02 8.72031990e-02 4.36015995e-02 8.72031990e-02 0.00000000e+00 1.74406398e-01 1.30804798e-01 1.30804798e-01 8.72031990e-02 0.00000000e+00 0.00000000e+00 2.18007997e-01 0.00000000e+00 8.72031990e-02 4.36015995e-02 4.36015995e-02 8.72031990e-02 8.72031990e-02 8.72031990e-02 0.00000000e+00 4.36015995e-02 1.74406398e-01 0.00000000e+00 1.74406398e-01 0.00000000e+00 4.36015995e-02 4.36015995e-02 1.30804798e-01 4.36015995e-02 4.36015995e-02 8.72031990e-02 2.18007997e-01 4.36015995e-02 1.30804798e-01 1.74406398e-01 1.74406398e-01 4.36015995e-02 4.36015995e-02 0.00000000e+00 1.30804798e-01 1.74406398e-01 4.36015995e-02 8.72031990e-02 4.36015995e-02 8.72031990e-02 8.72031990e-02 8.72031990e-02 0.00000000e+00 2.18007997e-01 4.36015995e-02 1.30804798e-01 1.30804798e-01 4.36015995e-02 4.36015995e-02 1.30804798e-01 4.36015995e-02 1.30804798e-01 4.36015995e-02 8.72031990e-02 1.74406398e-01 1.30804798e-01 8.72031990e-02 1.30804798e-01 2.18007997e-01 4.36015995e-02 1.30804798e-01 4.36015995e-02 1.30804798e-01 8.72031990e-02 8.72031990e-02 1.30804798e-01 4.36015995e-02 8.72031990e-02 4.36015995e-02 8.72031990e-02 0.00000000e+00 4.36015995e-02 0.00000000e+00 4.36015995e-02 1.74406398e-01 4.36015995e-02 4.36015995e-02 8.72031990e-02 8.72031990e-02 1.30804798e-01 8.72031990e-02 1.30804798e-01 2.18007997e-01 8.72031990e-02 4.36015995e-02 4.36015995e-02 4.36015995e-02 4.36015995e-02 8.72031990e-02 2.18007997e-01 4.36015995e-02 1.30804798e-01 4.36015995e-02 4.36015995e-02 4.36015995e-02 4.36015995e-01 4.36015995e-02 1.74406398e-01 4.36015995e-02 1.30804798e-01 8.72031990e-02 2.18007997e-01 8.72031990e-02 8.72031990e-02 0.00000000e+00 8.72031990e-02 8.72031990e-02 1.30804798e-01 0.00000000e+00 4.36015995e-02 8.72031990e-02 4.36015995e-02 8.72031990e-02 4.36015995e-02 2.61609597e-01 8.72031990e-02 1.30804798e-01 8.72031990e-02 8.72031990e-02 8.72031990e-02 1.30804798e-01 4.36015995e-02 0.00000000e+00 1.30804798e-01 4.36015995e-02 0.00000000e+00 8.72031990e-02 8.72031990e-02 0.00000000e+00 4.36015995e-02 4.36015995e-02 0.00000000e+00 2.18007997e-01 1.74406398e-01 4.36015995e-02 8.72031990e-02 0.00000000e+00 8.72031990e-02 4.36015995e-02 1.74406398e-01 1.30804798e-01 0.00000000e+00 4.36015995e-02 4.36015995e-02 8.72031990e-02 1.74406398e-01 4.36015995e-02 4.36015995e-02 4.36015995e-02 4.36015995e-02 0.00000000e+00 8.72031990e-02 1.74406398e-01 8.72031990e-02 1.74406398e-01 0.00000000e+00 1.30804798e-01 2.18007997e-01 1.74406398e-01 4.36015995e-02 4.36015995e-02 8.72031990e-02 2.18007997e-01 8.72031990e-02 4.36015995e-02 8.72031990e-02 0.00000000e+00 2.61609597e-01 8.72031990e-02 4.36015995e-02 1.74406398e-01 4.36015995e-02 4.36015995e-02 1.74406398e-01 1.30804798e-01 1.74406398e-01 4.36015995e-02 4.36015995e-02 1.30804798e-01 8.72031990e-02 2.18007997e-01 1.30804798e-01 1.30804798e-01 8.72031990e-02 0.00000000e+00 2.18007997e-01 1.30804798e-01 2.18007997e-01 0.00000000e+00 8.72031990e-02 0.00000000e+00 1.30804798e-01 2.18007997e-01 0.00000000e+00 8.72031990e-02 0.00000000e+00 4.36015995e-02 4.36015995e-02 8.72031990e-02 1.30804798e-01 1.30804798e-01 1.30804798e-01 1.74406398e-01 1.30804798e-01 8.72031990e-02 8.72031990e-02 4.36015995e-02 8.72031990e-02 4.36015995e-02 4.36015995e-02 4.36015995e-02 4.36015995e-02 4.36015995e-02 8.72031990e-02 1.30804798e-01 1.30804798e-01 1.30804798e-01 4.36015995e-02 1.30804798e-01 4.36015995e-02 2.61609597e-01 4.36015995e-02 8.72031990e-02 2.18007997e-01 1.30804798e-01 1.30804798e-01 2.18007997e-01 4.36015995e-02 4.36015995e-02 1.30804798e-01 1.30804798e-01 8.72031990e-02 1.30804798e-01 8.72031990e-02 4.36015995e-02 1.74406398e-01 4.36015995e-02 4.36015995e-02 8.72031990e-02 4.36015995e-02 4.36015995e-02 8.72031990e-02 1.74406398e-01 4.36015995e-02 1.74406398e-01 1.30804798e-01 8.72031990e-02 1.30804798e-01 4.36015995e-02 4.36015995e-02 8.72031990e-02 8.72031990e-02 8.72031990e-02 1.74406398e-01 4.36015995e-02 1.74406398e-01 1.30804798e-01 0.00000000e+00 4.36015995e-02 1.30804798e-01 8.72031990e-02 4.36015995e-02 8.72031990e-02 4.36015995e-02 8.72031990e-02 1.74406398e-01 4.36015995e-02 4.36015995e-02 1.74406398e-01 1.74406398e-01 8.72031990e-02 4.36015995e-02 4.36015995e-02 8.72031990e-02 0.00000000e+00 1.74406398e-01 4.36015995e-02 1.30804798e-01 1.30804798e-01 4.36015995e-02 4.36015995e-02 8.72031990e-02 1.74406398e-01 8.72031990e-02 8.72031990e-02 1.30804798e-01 4.36015995e-02 4.36015995e-02 4.36015995e-02 4.36015995e-02 1.30804798e-01 1.74406398e-01 8.72031990e-02 8.72031990e-02 4.36015995e-02 1.74406398e-01 8.72031990e-02 4.36015995e-02 1.74406398e-01 8.72031990e-02 1.30804798e-01 1.74406398e-01 4.36015995e-02 2.18007997e-01 8.72031990e-02 8.72031990e-02 0.00000000e+00 1.30804798e-01 8.72031990e-02 1.30804798e-01 2.18007997e-01 1.30804798e-01 1.30804798e-01 4.36015995e-02 4.36015995e-02 8.72031990e-02 1.30804798e-01 8.72031990e-02 1.30804798e-01 8.72031990e-02 4.36015995e-02 4.36015995e-02 1.30804798e-01 0.00000000e+00 0.00000000e+00 4.36015995e-02 1.30804798e-01 1.30804798e-01 0.00000000e+00 1.30804798e-01 4.36015995e-02 8.72031990e-02 8.72031990e-02 4.36015995e-02 8.72031990e-02 4.36015995e-02 3.05211196e-01 8.72031990e-02 8.72031990e-02 8.72031990e-02 4.36015995e-02 4.36015995e-02 8.72031990e-02 1.74406398e-01 0.00000000e+00 1.30804798e-01 8.72031990e-02 8.72031990e-02 8.72031990e-02 1.30804798e-01 0.00000000e+00 8.72031990e-02 4.36015995e-02 4.36015995e-02 8.72031990e-02 4.36015995e-02 8.72031990e-02 4.36015995e-02 1.30804798e-01 4.36015995e-02 8.72031990e-02 8.72031990e-02 4.36015995e-02 4.36015995e-02 8.72031990e-02 4.36015995e-02 4.36015995e-02 0.00000000e+00 2.18007997e-01 1.74406398e-01 4.36015995e-02 4.36015995e-02 1.74406398e-01 8.72031990e-02 4.36015995e-02 0.00000000e+00 8.72031990e-02 8.72031990e-02 4.36015995e-02 8.72031990e-02 4.36015995e-02 0.00000000e+00 8.72031990e-02 1.30804798e-01 4.36015995e-02 1.30804798e-01 4.36015995e-02 8.72031990e-02 4.36015995e-02 2.18007997e-01 4.36015995e-02 1.74406398e-01 4.36015995e-02 8.72031990e-02 8.72031990e-02 4.36015995e-02 1.30804798e-01 8.72031990e-02 0.00000000e+00 8.72031990e-02 0.00000000e+00 1.30804798e-01 2.18007997e-01 4.36015995e-02 8.72031990e-02 8.72031990e-02 4.36015995e-02 8.72031990e-02 8.72031990e-02 1.30804798e-01 8.72031990e-02 4.36015995e-02 1.74406398e-01 1.30804798e-01 4.36015995e-02 1.30804798e-01 0.00000000e+00 8.72031990e-02 4.36015995e-02 8.72031990e-02 2.61609597e-01 8.72031990e-02 4.36015995e-02 4.36015995e-02 8.72031990e-02 1.74406398e-01 8.72031990e-02 8.72031990e-02 1.30804798e-01 4.36015995e-02 8.72031990e-02 8.72031990e-02 8.72031990e-02 8.72031990e-02 4.36015995e-02 1.30804798e-01 4.36015995e-02 1.30804798e-01 2.18007997e-01 4.36015995e-02 4.36015995e-02 8.72031990e-02 4.36015995e-02 1.30804798e-01 1.30804798e-01 4.36015995e-02 8.72031990e-02 8.72031990e-02 1.30804798e-01 8.72031990e-02 8.72031990e-02 3.48812796e-01 8.72031990e-02 0.00000000e+00 1.30804798e-01 4.36015995e-02 0.00000000e+00 1.74406398e-01 4.36015995e-02 1.30804798e-01 4.36015995e-02 8.72031990e-02 1.74406398e-01 4.36015995e-02 8.72031990e-02 1.30804798e-01 4.36015995e-02 8.72031990e-02 0.00000000e+00 4.36015995e-02 1.74406398e-01 1.30804798e-01 4.36015995e-02 1.30804798e-01 1.30804798e-01 1.74406398e-01 8.72031990e-02 2.18007997e-01 0.00000000e+00 8.72031990e-02 4.36015995e-02 8.72031990e-02 1.30804798e-01 8.72031990e-02 4.36015995e-02 4.36015995e-02 1.74406398e-01 2.18007997e-01 1.30804798e-01 1.30804798e-01 8.72031990e-02 0.00000000e+00 4.36015995e-02 8.72031990e-02 8.72031990e-02 8.72031990e-02 1.30804798e-01 1.30804798e-01 1.30804798e-01 4.36015995e-02 0.00000000e+00 4.36015995e-02 1.30804798e-01 8.72031990e-02 1.30804798e-01 1.74406398e-01 8.72031990e-02 1.30804798e-01 1.30804798e-01 8.72031990e-02 1.30804798e-01 8.72031990e-02 2.18007997e-01 8.72031990e-02 1.30804798e-01 2.18007997e-01 1.74406398e-01 4.36015995e-02 0.00000000e+00 0.00000000e+00 8.72031990e-02 4.36015995e-02 4.36015995e-02 1.30804798e-01 1.74406398e-01 0.00000000e+00 4.36015995e-02 1.30804798e-01 2.61609597e-01 4.36015995e-02 8.72031990e-02 4.36015995e-02 8.72031990e-02 4.36015995e-02 0.00000000e+00 1.74406398e-01 4.36015995e-02 1.30804798e-01 0.00000000e+00 2.18007997e-01 4.36015995e-02 8.72031990e-02 8.72031990e-02 0.00000000e+00 1.74406398e-01 8.72031990e-02 2.18007997e-01 4.36015995e-02 4.36015995e-02 2.18007997e-01 1.74406398e-01 8.72031990e-02 4.36015995e-02 1.30804798e-01 1.30804798e-01 8.72031990e-02 4.36015995e-02 8.72031990e-02 8.72031990e-02 1.74406398e-01 8.72031990e-02 1.30804798e-01 4.36015995e-02 4.36015995e-02 0.00000000e+00 8.72031990e-02 8.72031990e-02 8.72031990e-02 4.36015995e-02 8.72031990e-02 8.72031990e-02 8.72031990e-02 4.36015995e-02 4.36015995e-02 1.30804798e-01 0.00000000e+00 2.18007997e-01 4.36015995e-02 8.72031990e-02 8.72031990e-02 8.72031990e-02 4.36015995e-02 1.30804798e-01 2.18007997e-01 0.00000000e+00 0.00000000e+00 1.30804798e-01 4.36015995e-02 1.30804798e-01 1.30804798e-01 1.30804798e-01 8.72031990e-02 4.36015995e-02 1.30804798e-01 0.00000000e+00 1.30804798e-01 4.36015995e-02 1.74406398e-01 8.72031990e-02 4.36015995e-02 4.36015995e-02 1.30804798e-01 3.05211196e-01 4.36015995e-02 4.36015995e-02 2.18007997e-01 1.30804798e-01 4.36015995e-02 8.72031990e-02 1.30804798e-01 4.36015995e-02 0.00000000e+00 1.30804798e-01 1.74406398e-01 1.74406398e-01 1.74406398e-01 1.30804798e-01 1.30804798e-01 4.36015995e-02 4.36015995e-02 2.18007997e-01 8.72031990e-02 4.36015995e-02 8.72031990e-02 0.00000000e+00 4.36015995e-02 1.74406398e-01 4.36015995e-02 4.36015995e-02 4.36015995e-02 0.00000000e+00 1.74406398e-01 1.30804798e-01 0.00000000e+00 0.00000000e+00 2.18007997e-01 4.36015995e-02 0.00000000e+00 1.30804798e-01 4.36015995e-02 8.72031990e-02 8.72031990e-02 2.18007997e-01 4.36015995e-02 4.36015995e-02 4.36015995e-02 1.30804798e-01 8.72031990e-02 8.72031990e-02 4.36015995e-02 8.72031990e-02 8.72031990e-02 8.72031990e-02 4.36015995e-02 1.74406398e-01 1.30804798e-01 4.36015995e-02 4.36015995e-02 1.74406398e-01 4.36015995e-02 8.72031990e-02 4.36015995e-02 4.36015995e-02 2.18007997e-01 0.00000000e+00 4.36015995e-02 4.36015995e-02 8.72031990e-02 2.61609597e-01 8.72031990e-02 2.18007997e-01 0.00000000e+00 4.36015995e-02 1.30804798e-01 4.36015995e-02 1.30804798e-01 4.36015995e-02 0.00000000e+00 1.74406398e-01 4.36015995e-02 1.30804798e-01 0.00000000e+00 4.36015995e-02 8.72031990e-02 3.05211196e-01 8.72031990e-02 1.74406398e-01 8.72031990e-02 8.72031990e-02 2.18007997e-01 0.00000000e+00 1.74406398e-01 4.36015995e-02 4.36015995e-02 8.72031990e-02 8.72031990e-02 1.74406398e-01 4.36015995e-02 1.74406398e-01 0.00000000e+00 1.74406398e-01 8.72031990e-02 8.72031990e-02 3.05211196e-01 0.00000000e+00 1.30804798e-01 8.72031990e-02 1.74406398e-01 4.36015995e-02 4.36015995e-02 4.36015995e-02 8.72031990e-02 1.30804798e-01 1.74406398e-01 1.30804798e-01 0.00000000e+00 8.72031990e-02 8.72031990e-02 1.30804798e-01 1.30804798e-01 8.72031990e-02 1.30804798e-01 0.00000000e+00 1.30804798e-01 8.72031990e-02 1.74406398e-01 0.00000000e+00 4.36015995e-02 8.72031990e-02 0.00000000e+00 8.72031990e-02 8.72031990e-02 1.30804798e-01 8.72031990e-02 8.72031990e-02 8.72031990e-02 8.72031990e-02 1.30804798e-01 1.30804798e-01 4.36015995e-02 8.72031990e-02 4.36015995e-02 8.72031990e-02 8.72031990e-02 1.74406398e-01 8.72031990e-02 4.36015995e-02 1.30804798e-01 0.00000000e+00 8.72031990e-02 8.72031990e-02 8.72031990e-02 0.00000000e+00 8.72031990e-02 4.36015995e-02 0.00000000e+00 1.30804798e-01 8.72031990e-02 1.30804798e-01 4.36015995e-02 1.74406398e-01 0.00000000e+00 8.72031990e-02 4.36015995e-02 8.72031990e-02 1.30804798e-01 2.18007997e-01 8.72031990e-02 8.72031990e-02 4.36015995e-02 1.30804798e-01 8.72031990e-02 1.74406398e-01 2.18007997e-01 4.36015995e-02 8.72031990e-02 2.18007997e-01 4.36015995e-02 2.18007997e-01 8.72031990e-02 8.72031990e-02 4.36015995e-02 1.30804798e-01 4.36015995e-02 4.36015995e-02 8.72031990e-02 1.30804798e-01 4.36015995e-02 4.36015995e-02 8.72031990e-02 0.00000000e+00 1.74406398e-01 0.00000000e+00 1.30804798e-01 0.00000000e+00 1.30804798e-01 8.72031990e-02 1.30804798e-01 1.30804798e-01 1.30804798e-01 0.00000000e+00 0.00000000e+00 8.72031990e-02 4.36015995e-02 1.74406398e-01 8.72031990e-02 2.61609597e-01 1.30804798e-01 3.05211196e-01 4.36015995e-02 1.30804798e-01 1.74406398e-01 8.72031990e-02 3.05211196e-01 8.72031990e-02 1.30804798e-01 0.00000000e+00 0.00000000e+00 4.36015995e-02 8.72031990e-02 0.00000000e+00 4.36015995e-02 1.30804798e-01 8.72031990e-02 0.00000000e+00 0.00000000e+00 4.36015995e-02 0.00000000e+00 1.30804798e-01 2.61609597e-01 1.30804798e-01 0.00000000e+00 8.72031990e-02 4.36015995e-02 4.36015995e-02 4.36015995e-02 2.61609597e-01 0.00000000e+00 8.72031990e-02 0.00000000e+00 1.74406398e-01 4.36015995e-02 8.72031990e-02 0.00000000e+00 1.30804798e-01 0.00000000e+00 1.30804798e-01 8.72031990e-02 1.30804798e-01 1.30804798e-01 1.74406398e-01 4.36015995e-02 8.72031990e-02 8.72031990e-02 1.30804798e-01 4.36015995e-02 8.72031990e-02 0.00000000e+00 1.74406398e-01 8.72031990e-02 4.36015995e-02 8.72031990e-02 1.30804798e-01 8.72031990e-02 4.36015995e-02 8.72031990e-02 4.36015995e-02 8.72031990e-02 0.00000000e+00 1.74406398e-01 4.36015995e-02 4.36015995e-02 8.72031990e-02 1.30804798e-01 2.18007997e-01 4.36015995e-02 4.36015995e-02 1.30804798e-01 8.72031990e-02 1.30804798e-01 4.36015995e-02 4.36015995e-02 4.36015995e-02 8.72031990e-02 1.74406398e-01 4.36015995e-02 1.30804798e-01 8.72031990e-02 0.00000000e+00 8.72031990e-02 1.30804798e-01 1.30804798e-01 4.36015995e-02 1.30804798e-01 8.72031990e-02 1.30804798e-01 1.30804798e-01 4.36015995e-02 1.30804798e-01 1.74406398e-01 2.18007997e-01 4.36015995e-02 4.36015995e-02 0.00000000e+00 8.72031990e-02 8.72031990e-02 1.30804798e-01 4.36015995e-02 0.00000000e+00 0.00000000e+00 8.72031990e-02 4.36015995e-02 8.72031990e-02 4.36015995e-02 2.18007997e-01 1.30804798e-01 8.72031990e-02 0.00000000e+00 4.36015995e-02 1.30804798e-01 1.30804798e-01 4.36015995e-02 1.74406398e-01 8.72031990e-02 8.72031990e-02 1.30804798e-01 1.30804798e-01 4.36015995e-02 4.36015995e-02 1.30804798e-01 8.72031990e-02 8.72031990e-02 4.36015995e-02 1.30804798e-01 8.72031990e-02 8.72031990e-02 4.36015995e-02 8.72031990e-02 8.72031990e-02 4.36015995e-02 1.30804798e-01 1.74406398e-01 1.30804798e-01 0.00000000e+00 8.72031990e-02 1.30804798e-01 4.36015995e-02 4.36015995e-02 1.30804798e-01 0.00000000e+00 8.72031990e-02 4.36015995e-02 0.00000000e+00 4.36015995e-02 1.30804798e-01 4.36015995e-02 4.36015995e-02 4.36015995e-02 1.30804798e-01 4.36015995e-02 4.36015995e-02 8.72031990e-02 1.30804798e-01 4.36015995e-02 8.72031990e-02 8.72031990e-02 1.30804798e-01 1.30804798e-01 0.00000000e+00 4.36015995e-02 1.30804798e-01 4.36015995e-02 4.36015995e-02 2.18007997e-01 8.72031990e-02 1.30804798e-01 4.36015995e-02 4.36015995e-02 4.36015995e-02 1.74406398e-01 8.72031990e-02 0.00000000e+00 1.30804798e-01 1.30804798e-01 1.30804798e-01 4.36015995e-02 8.72031990e-02 1.30804798e-01 0.00000000e+00 1.30804798e-01 4.36015995e-02 1.30804798e-01 4.36015995e-02 4.36015995e-02 1.30804798e-01 0.00000000e+00 1.74406398e-01 0.00000000e+00 1.74406398e-01 1.74406398e-01 2.18007997e-01 1.30804798e-01 8.72031990e-02 0.00000000e+00 1.30804798e-01 4.36015995e-02 0.00000000e+00 2.18007997e-01 1.30804798e-01 2.18007997e-01 1.30804798e-01 1.74406398e-01 4.36015995e-02 4.36015995e-02 4.36015995e-02 1.30804798e-01 1.30804798e-01 8.72031990e-02 1.74406398e-01 8.72031990e-02 0.00000000e+00 2.18007997e-01 8.72031990e-02 8.72031990e-02 4.36015995e-02 1.30804798e-01 1.74406398e-01 1.30804798e-01 0.00000000e+00 1.30804798e-01 0.00000000e+00 4.36015995e-02 4.36015995e-02 0.00000000e+00 4.36015995e-02 1.74406398e-01 1.74406398e-01 8.72031990e-02 8.72031990e-02 0.00000000e+00 8.72031990e-02 0.00000000e+00 0.00000000e+00 0.00000000e+00 0.00000000e+00 4.36015995e-02 8.72031990e-02 1.30804798e-01 8.72031990e-02 4.36015995e-02 8.72031990e-02 1.30804798e-01 4.36015995e-02 1.74406398e-01 1.74406398e-01 4.36015995e-02 8.72031990e-02 2.18007997e-01 4.36015995e-02 1.74406398e-01 4.36015995e-02 4.36015995e-02 4.36015995e-02 1.74406398e-01 8.72031990e-02 8.72031990e-02 0.00000000e+00 0.00000000e+00 1.30804798e-01 8.72031990e-02 8.72031990e-02 1.30804798e-01 4.36015995e-02 8.72031990e-02 1.30804798e-01 8.72031990e-02 0.00000000e+00 8.72031990e-02 8.72031990e-02 1.74406398e-01 0.00000000e+00 1.30804798e-01 8.72031990e-02 1.30804798e-01 1.30804798e-01 4.36015995e-02 1.30804798e-01 1.74406398e-01 8.72031990e-02 8.72031990e-02 0.00000000e+00 0.00000000e+00 4.36015995e-02 0.00000000e+00 1.74406398e-01 4.36015995e-02 4.36015995e-02 8.72031990e-02 8.72031990e-02 4.36015995e-02 1.74406398e-01 1.30804798e-01 8.72031990e-02 1.30804798e-01 8.72031990e-02 8.72031990e-02 8.72031990e-02 4.36015995e-02 1.74406398e-01 4.36015995e-02 4.36015995e-02 2.18007997e-01 8.72031990e-02 8.72031990e-02 1.74406398e-01 4.36015995e-02 8.72031990e-02 1.74406398e-01 4.36015995e-02 8.72031990e-02 0.00000000e+00 0.00000000e+00 4.36015995e-02 8.72031990e-02 8.72031990e-02 1.30804798e-01 1.74406398e-01 1.30804798e-01 8.72031990e-02 4.36015995e-02 1.30804798e-01 8.72031990e-02 4.36015995e-02 1.74406398e-01 2.18007997e-01 1.30804798e-01 0.00000000e+00 1.30804798e-01 8.72031990e-02 1.30804798e-01 1.30804798e-01 1.30804798e-01 8.72031990e-02 4.36015995e-02 4.36015995e-02 8.72031990e-02 8.72031990e-02 4.36015995e-02 4.36015995e-02 0.00000000e+00 1.30804798e-01 8.72031990e-02 8.72031990e-02 0.00000000e+00 4.36015995e-02 4.36015995e-02 1.30804798e-01 8.72031990e-02 4.36015995e-02 1.74406398e-01 1.30804798e-01 8.72031990e-02 0.00000000e+00 8.72031990e-02 4.36015995e-02 0.00000000e+00 4.36015995e-02 0.00000000e+00 8.72031990e-02 0.00000000e+00 8.72031990e-02 8.72031990e-02 2.61609597e-01 4.36015995e-02 1.74406398e-01 2.18007997e-01 8.72031990e-02 4.36015995e-02 0.00000000e+00 4.36015995e-02 4.36015995e-02 1.30804798e-01 8.72031990e-02 1.74406398e-01 2.18007997e-01 4.36015995e-02 4.36015995e-02 2.18007997e-01 4.36015995e-02 0.00000000e+00 4.36015995e-02 4.36015995e-02 8.72031990e-02 8.72031990e-02 2.18007997e-01 8.72031990e-02 4.36015995e-02 4.36015995e-02 1.74406398e-01 8.72031990e-02 8.72031990e-02 0.00000000e+00 8.72031990e-02 0.00000000e+00 4.36015995e-02 4.36015995e-02 0.00000000e+00 4.36015995e-02 4.36015995e-02 4.36015995e-02 1.74406398e-01 4.36015995e-02 4.36015995e-02 8.72031990e-02 8.72031990e-02 8.72031990e-02 8.72031990e-02 4.36015995e-02 4.36015995e-02 8.72031990e-02 4.36015995e-02 1.30804798e-01 8.72031990e-02 1.74406398e-01 1.30804798e-01 1.30804798e-01 4.36015995e-02 0.00000000e+00 4.36015995e-02 0.00000000e+00 8.72031990e-02 4.36015995e-02 1.74406398e-01 4.36015995e-02 8.72031990e-02 4.36015995e-02 1.30804798e-01 1.30804798e-01 0.00000000e+00 4.36015995e-02 8.72031990e-02 1.74406398e-01 0.00000000e+00 1.30804798e-01 8.72031990e-02 4.36015995e-02 4.36015995e-02 1.30804798e-01 1.30804798e-01 4.36015995e-02 0.00000000e+00 8.72031990e-02 1.30804798e-01 8.72031990e-02 2.18007997e-01 8.72031990e-02 4.36015995e-02 1.30804798e-01 1.30804798e-01 8.72031990e-02 4.36015995e-02 4.36015995e-02 4.36015995e-02 1.30804798e-01 0.00000000e+00 4.36015995e-02 4.36015995e-02 1.30804798e-01 8.72031990e-02 4.36015995e-02 8.72031990e-02 8.72031990e-02 8.72031990e-02 8.72031990e-02 4.36015995e-02 8.72031990e-02 8.72031990e-02 8.72031990e-02 0.00000000e+00 4.36015995e-02 1.74406398e-01 8.72031990e-02 8.72031990e-02 8.72031990e-02 1.30804798e-01 8.72031990e-02 4.36015995e-02 4.36015995e-02 1.30804798e-01 1.30804798e-01 1.30804798e-01 4.36015995e-02 4.36015995e-02 4.36015995e-02 0.00000000e+00 4.36015995e-02 8.72031990e-02 0.00000000e+00 4.36015995e-02 4.36015995e-02 8.72031990e-02 4.36015995e-02 8.72031990e-02 4.36015995e-02 4.36015995e-02 4.36015995e-02 0.00000000e+00 8.72031990e-02 8.72031990e-02 4.36015995e-02 4.36015995e-02 8.72031990e-02 1.30804798e-01 4.36015995e-02 4.36015995e-02 1.74406398e-01 1.30804798e-01 1.30804798e-01 4.36015995e-02 4.36015995e-02 8.72031990e-02 1.30804798e-01 4.36015995e-02 0.00000000e+00 8.72031990e-02 0.00000000e+00 8.72031990e-02 8.72031990e-02 4.36015995e-02 1.30804798e-01 8.72031990e-02 4.36015995e-02 8.72031990e-02 1.30804798e-01 4.36015995e-02 8.72031990e-02 2.61609597e-01 4.36015995e-02 8.72031990e-02 4.36015995e-02 0.00000000e+00 4.36015995e-02 4.36015995e-02 1.30804798e-01 1.74406398e-01 8.72031990e-02 8.72031990e-02 1.30804798e-01 4.36015995e-02 8.72031990e-02 0.00000000e+00 4.36015995e-02 3.48812796e-01 4.36015995e-02 1.74406398e-01 8.72031990e-02 1.30804798e-01 4.36015995e-02 1.30804798e-01 4.36015995e-02 1.74406398e-01 0.00000000e+00 8.72031990e-02 0.00000000e+00 1.30804798e-01 8.72031990e-02 4.36015995e-02 2.18007997e-01 4.36015995e-02 1.30804798e-01 1.74406398e-01 0.00000000e+00 2.61609597e-01 4.36015995e-02 8.72031990e-02 4.36015995e-02 1.30804798e-01 0.00000000e+00 1.30804798e-01 4.36015995e-02 1.30804798e-01 8.72031990e-02 8.72031990e-02 4.36015995e-02 1.30804798e-01 8.72031990e-02 1.30804798e-01 4.36015995e-02 4.36015995e-02 4.36015995e-02 1.30804798e-01 4.36015995e-02 4.36015995e-02 0.00000000e+00 0.00000000e+00 4.36015995e-02 4.36015995e-02 8.72031990e-02 0.00000000e+00 4.36015995e-02 8.72031990e-02 1.30804798e-01 8.72031990e-02 4.36015995e-02 0.00000000e+00 1.74406398e-01 1.30804798e-01 4.36015995e-02 1.30804798e-01 4.36015995e-02 1.30804798e-01 1.74406398e-01 0.00000000e+00 1.30804798e-01 8.72031990e-02 1.30804798e-01 4.36015995e-02 0.00000000e+00 4.36015995e-02 2.18007997e-01 0.00000000e+00 4.36015995e-02 4.36015995e-02 8.72031990e-02 8.72031990e-02 1.30804798e-01 4.36015995e-02 1.30804798e-01 4.36015995e-02 1.30804798e-01 1.30804798e-01 8.72031990e-02 1.30804798e-01 0.00000000e+00 8.72031990e-02 1.30804798e-01 8.72031990e-02 1.30804798e-01 2.18007997e-01 4.36015995e-02 0.00000000e+00 1.30804798e-01 0.00000000e+00 8.72031990e-02 1.30804798e-01 8.72031990e-02 4.36015995e-02 0.00000000e+00 8.72031990e-02 8.72031990e-02 4.36015995e-02 4.36015995e-02 0.00000000e+00 2.18007997e-01 0.00000000e+00 4.36015995e-02 2.61609597e-01 8.72031990e-02 0.00000000e+00 8.72031990e-02 8.72031990e-02 4.36015995e-02 2.61609597e-01 8.72031990e-02 0.00000000e+00 4.36015995e-02 1.30804798e-01 8.72031990e-02 1.74406398e-01 4.36015995e-02 8.72031990e-02 4.36015995e-02 4.36015995e-02 8.72031990e-02 8.72031990e-02 0.00000000e+00 8.72031990e-02 8.72031990e-02 0.00000000e+00 4.36015995e-02 4.36015995e-02 0.00000000e+00 1.30804798e-01 1.74406398e-01 8.72031990e-02 8.72031990e-02 1.30804798e-01 8.72031990e-02 0.00000000e+00 1.30804798e-01 4.36015995e-02 4.36015995e-02 0.00000000e+00 4.36015995e-02 4.36015995e-02 0.00000000e+00 4.36015995e-02 4.36015995e-02 0.00000000e+00 1.30804798e-01 8.72031990e-02 0.00000000e+00 1.74406398e-01 8.72031990e-02 4.36015995e-02 4.36015995e-02 4.36015995e-02 8.72031990e-02 1.30804798e-01 0.00000000e+00 1.74406398e-01 1.30804798e-01 4.36015995e-02 0.00000000e+00 1.30804798e-01 0.00000000e+00 4.36015995e-02 0.00000000e+00 0.00000000e+00 0.00000000e+00 8.72031990e-02 8.72031990e-02 8.72031990e-02 2.18007997e-01 1.30804798e-01 4.36015995e-02 1.74406398e-01 8.72031990e-02 4.36015995e-02 0.00000000e+00 4.36015995e-02 0.00000000e+00 8.72031990e-02 8.72031990e-02 4.36015995e-02 0.00000000e+00 8.72031990e-02 8.72031990e-02 4.36015995e-02 4.36015995e-02 8.72031990e-02 4.36015995e-02 1.30804798e-01 1.30804798e-01 1.74406398e-01 8.72031990e-02 4.36015995e-02 8.72031990e-02 1.74406398e-01 0.00000000e+00 4.36015995e-02 8.72031990e-02 8.72031990e-02 1.30804798e-01 0.00000000e+00 8.72031990e-02 1.30804798e-01 0.00000000e+00 0.00000000e+00 4.36015995e-02 4.36015995e-02 1.30804798e-01 4.36015995e-02 4.36015995e-02 1.74406398e-01 4.36015995e-02 1.30804798e-01 4.36015995e-02 1.30804798e-01 8.72031990e-02 0.00000000e+00 4.36015995e-02 4.36015995e-02 4.36015995e-02 1.74406398e-01 4.36015995e-02 4.36015995e-02 4.36015995e-02 8.72031990e-02 1.74406398e-01 8.72031990e-02 8.72031990e-02 1.30804798e-01 4.36015995e-02 8.72031990e-02 8.72031990e-02 1.30804798e-01 1.74406398e-01 4.36015995e-02 8.72031990e-02 0.00000000e+00 4.36015995e-02 8.72031990e-02 8.72031990e-02 0.00000000e+00 1.74406398e-01 4.36015995e-02 2.18007997e-01 8.72031990e-02 1.30804798e-01 4.36015995e-02 1.30804798e-01 4.36015995e-02 4.36015995e-02 1.30804798e-01 4.36015995e-02 8.72031990e-02 8.72031990e-02 8.72031990e-02 8.72031990e-02 4.36015995e-02 8.72031990e-02 2.18007997e-01 4.36015995e-02 8.72031990e-02 8.72031990e-02 4.36015995e-02 1.30804798e-01 4.36015995e-02 4.36015995e-02 1.30804798e-01 1.74406398e-01 0.00000000e+00 8.72031990e-02 1.30804798e-01 4.36015995e-02 8.72031990e-02 4.36015995e-02 8.72031990e-02 1.30804798e-01 2.18007997e-01 4.36015995e-02 4.36015995e-02 1.30804798e-01 8.72031990e-02 4.36015995e-02 8.72031990e-02 2.18007997e-01 8.72031990e-02 0.00000000e+00 8.72031990e-02 0.00000000e+00 0.00000000e+00 1.74406398e-01 0.00000000e+00 4.36015995e-02 8.72031990e-02 8.72031990e-02 0.00000000e+00 8.72031990e-02 4.36015995e-02 4.36015995e-02 4.36015995e-02 1.30804798e-01 1.30804798e-01 4.36015995e-02 0.00000000e+00 8.72031990e-02 2.61609597e-01 0.00000000e+00 1.74406398e-01 0.00000000e+00 1.74406398e-01 0.00000000e+00 0.00000000e+00 8.72031990e-02 8.72031990e-02 8.72031990e-02 8.72031990e-02 8.72031990e-02 4.36015995e-02 8.72031990e-02 1.30804798e-01 8.72031990e-02 2.18007997e-01 4.36015995e-02 8.72031990e-02 1.30804798e-01 8.72031990e-02 4.36015995e-02 8.72031990e-02 1.30804798e-01 0.00000000e+00 4.36015995e-02 0.00000000e+00 1.30804798e-01 8.72031990e-02 8.72031990e-02 8.72031990e-02 1.74406398e-01 4.36015995e-02 4.36015995e-02 1.74406398e-01 8.72031990e-02 8.72031990e-02 1.30804798e-01 0.00000000e+00 1.74406398e-01 8.72031990e-02 8.72031990e-02 4.36015995e-02 1.30804798e-01 1.30804798e-01 0.00000000e+00 0.00000000e+00 4.36015995e-02 1.30804798e-01 4.36015995e-02 1.30804798e-01 4.36015995e-02 1.30804798e-01 0.00000000e+00 8.72031990e-02 1.30804798e-01 1.30804798e-01 0.00000000e+00 4.36015995e-02 1.74406398e-01 4.36015995e-02 1.30804798e-01 8.72031990e-02 4.36015995e-02 8.72031990e-02 8.72031990e-02 4.36015995e-02 4.36015995e-02 4.36015995e-02 1.74406398e-01 8.72031990e-02 1.74406398e-01 1.30804798e-01 8.72031990e-02 8.72031990e-02 1.74406398e-01 0.00000000e+00 4.36015995e-02 4.36015995e-02 4.36015995e-02 4.36015995e-02 8.72031990e-02 8.72031990e-02 0.00000000e+00 1.74406398e-01 0.00000000e+00 1.30804798e-01 1.30804798e-01 4.36015995e-02 0.00000000e+00 4.36015995e-02 0.00000000e+00 0.00000000e+00 8.72031990e-02 1.74406398e-01 1.30804798e-01 1.74406398e-01 1.30804798e-01 8.72031990e-02 8.72031990e-02 2.18007997e-01 8.72031990e-02 4.36015995e-02 1.74406398e-01 0.00000000e+00 0.00000000e+00 8.72031990e-02 0.00000000e+00 4.36015995e-02 1.74406398e-01 0.00000000e+00 4.36015995e-02 4.36015995e-02 0.00000000e+00 0.00000000e+00 0.00000000e+00 4.36015995e-02 1.30804798e-01 4.36015995e-02 4.36015995e-02 4.36015995e-02 4.36015995e-02 1.74406398e-01 0.00000000e+00 4.36015995e-02 8.72031990e-02 4.36015995e-02 1.74406398e-01 8.72031990e-02 0.00000000e+00 1.74406398e-01 8.72031990e-02 1.30804798e-01 4.36015995e-02 1.74406398e-01 4.36015995e-02 1.74406398e-01 8.72031990e-02 8.72031990e-02 8.72031990e-02 8.72031990e-02 8.72031990e-02 1.30804798e-01 4.36015995e-02 1.30804798e-01 0.00000000e+00 8.72031990e-02 8.72031990e-02 8.72031990e-02 4.36015995e-02 1.30804798e-01 8.72031990e-02 1.30804798e-01 1.74406398e-01 0.00000000e+00 1.30804798e-01 4.36015995e-02 1.30804798e-01 0.00000000e+00 0.00000000e+00 1.30804798e-01 1.30804798e-01 0.00000000e+00 4.36015995e-02 0.00000000e+00 4.36015995e-02 0.00000000e+00 0.00000000e+00 4.36015995e-02 4.36015995e-02 0.00000000e+00 0.00000000e+00 1.30804798e-01 4.36015995e-02 1.74406398e-01 4.36015995e-02 0.00000000e+00 4.36015995e-02 1.30804798e-01 0.00000000e+00 4.36015995e-02 4.36015995e-02 0.00000000e+00 0.00000000e+00 8.72031990e-02 1.74406398e-01 8.72031990e-02 4.36015995e-02 0.00000000e+00 4.36015995e-02 4.36015995e-02 4.36015995e-02 4.36015995e-02 8.72031990e-02 8.72031990e-02 4.36015995e-02 2.18007997e-01 8.72031990e-02 4.36015995e-02 0.00000000e+00 1.74406398e-01 0.00000000e+00 8.72031990e-02 4.36015995e-02 4.36015995e-02 4.36015995e-02 1.30804798e-01 1.30804798e-01 4.36015995e-02 8.72031990e-02 8.72031990e-02 4.36015995e-02 8.72031990e-02 4.36015995e-02 4.36015995e-02 8.72031990e-02 0.00000000e+00 0.00000000e+00 4.36015995e-02 0.00000000e+00 8.72031990e-02 8.72031990e-02 0.00000000e+00 1.30804798e-01 4.36015995e-02 8.72031990e-02 2.61609597e-01 4.36015995e-02 0.00000000e+00 4.36015995e-02 4.36015995e-02 4.36015995e-02 4.36015995e-02 8.72031990e-02 4.36015995e-02 2.61609597e-01 4.36015995e-02 4.36015995e-02 4.36015995e-02 1.30804798e-01 4.36015995e-02 8.72031990e-02 1.30804798e-01 0.00000000e+00 2.61609597e-01 1.74406398e-01 1.30804798e-01 4.36015995e-02 1.74406398e-01 8.72031990e-02 1.30804798e-01 1.30804798e-01 1.30804798e-01 8.72031990e-02 4.36015995e-02 1.30804798e-01 4.36015995e-02 8.72031990e-02 1.30804798e-01 2.61609597e-01 